{"learner":{"attributes":{"best_iteration":"299","best_ntree_limit":"300"},"feature_names":[],"feature_types":[],"gradient_booster":{"model":{"gbtree_model_param":{"num_parallel_tree":"1","num_trees":"300","size_leaf_vector":"0"},"tree_info":[0,0,0,0,0,0,0,0,0,0,0,0,0,0,0,0,0,0,0,0,0,0,0,0,0,0,0,0,0,0,0,0,0,0,0,0,0,0,0,0,0,0,0,0,0,0,0,0,0,0,0,0,0,0,0,0,0,0,0,0,0,0,0,0,0,0,0,0,0,0,0,0,0,0,0,0,0,0,0,0,0,0,0,0,0,0,0,0,0,0,0,0,0,0,0,0,0,0,0,0,0,0,0,0,0,0,0,0,0,0,0,0,0,0,0,0,0,0,0,0,0,0,0,0,0,0,0,0,0,0,0,0,0,0,0,0,0,0,0,0,0,0,0,0,0,0,0,0,0,0,0,0,0,0,0,0,0,0,0,0,0,0,0,0,0,0,0,0,0,0,0,0,0,0,0,0,0,0,0,0,0,0,0,0,0,0,0,0,0,0,0,0,0,0,0,0,0,0,0,0,0,0,0,0,0,0,0,0,0,0,0,0,0,0,0,0,0,0,0,0,0,0,0,0,0,0,0,0,0,0,0,0,0,0,0,0,0,0,0,0,0,0,0,0,0,0,0,0,0,0,0,0,0,0,0,0,0,0,0,0,0,0,0,0,0,0,0,0,0,0,0,0,0,0,0,0,0,0,0,0,0,0,0,0,0,0,0,0,0,0,0,0,0,0,0,0,0,0,0,0],"trees":[{"base_weights":[4.020292E-8,1.3587793E0,-8.8434875E-1,1.0348032E0,1.7250178E0,6.563262E-1,-1.0841097E0,1.2671478E-1,1.2211576E0,6.0231036E-1,1.760704E0,6.540533E-2,1.485753E0,-1.3989836E0,-3.8194358E-1,4.288597E-1,-1.7894737E0,9.464386E-1,1.6410061E0,-1.5789474E0,1.7622707E0,1.7711384E0,1.4556578E-1,9.5807564E-1,-7.490652E-1,-4.523529E-1,1.6271809E0,-1.4683803E0,-2.4431823E-1,-1.4474809E0,1.001871E-2,-1.532248E-1,1.4165779E0,1.1000537E0,-9.2873037E-1,-8.970413E-2,1.7152501E0,1.8768781E0,1.5267912E0,-1E0,1.1053408E0,1.0815663E0,-1.2E0,1.7495991E-1,-1.665214E0,-1.3846154E0,1.1053408E0,-1E0,1.6997782E0,-1.3817033E0,-1.9784367E0,1.1929731E0,-6.869904E-1,-1.7056094E0,3.8961348E-1,3.1204948E-1,-1.9354838E0],"categories":[],"categories_nodes":[],"categories_segments":[],"categories_sizes":[],"default_left":[1,1,1,1,1,1,1,1,1,1,1,1,1,1,1,1,0,1,1,0,0,1,1,1,1,1,1,1,1,1,1,0,0,0,0,0,0,0,0,0,0,0,0,0,0,0,0,0,0,0,0,0,0,0,0,0,0],"id":0,"left_children":[1,3,5,7,9,11,13,15,17,19,21,23,25,27,29,31,-1,33,35,-1,-1,37,39,41,43,45,47,49,51,53,55,-1,-1,-1,-1,-1,-1,-1,-1,-1,-1,-1,-1,-1,-1,-1,-1,-1,-1,-1,-1,-1,-1,-1,-1,-1,-1],"loss_changes":[2.2530654E3,8.5924805E1,3.5026813E2,6.6645294E1,1.2781128E1,6.410153E1,2.2184192E2,4.0327732E1,3.621039E1,3.355684E1,5.376465E0,5.7090218E1,1.5660522E1,5.5253784E1,1.3064294E2,3.461496E1,0E0,5.871115E1,1.6618713E1,0E0,0E0,5.7143555E0,4.6627126E0,1.1273258E1,3.5088448E1,8.044205E0,1.1419769E1,2.6201294E1,2.6617437E1,4.055449E1,1.355469E2,0E0,0E0,0E0,0E0,0E0,0E0,0E0,0E0,0E0,0E0,0E0,0E0,0E0,0E0,0E0,0E0,0E0,0E0,0E0,0E0,0E0,0E0,0E0,0E0,0E0,0E0],"parents":[2147483647,0,0,1,1,2,2,3,3,4,4,5,5,6,6,7,7,8,8,9,9,10,10,11,11,12,12,13,13,14,14,15,15,17,17,18,18,21,21,22,22,23,23,24,24,25,25,26,26,27,27,28,28,29,29,30,30],"right_children":[2,4,6,8,10,12,14,16,18,20,22,24,26,28,30,32,-1,34,36,-1,-1,38,40,42,44,46,48,50,52,54,56,-1,-1,-1,-1,-1,-1,-1,-1,-1,-1,-1,-1,-1,-1,-1,-1,-1,-1,-1,-1,-1,-1,-1,-1,-1,-1],"split_conditions":[-1.0337988E0,4.894395E-1,-1.0947043E0,-4.098464E-1,-1.1614025E0,4.894395E-1,4.894395E-1,2.8388137E-1,-2.719074E-1,-2.719074E-1,1.3689767E0,-1.1130482E0,-1.0517042E0,2.5779219E0,-4.098464E-1,7.803037E-1,-1.7894737E-1,5.602125E-1,-1.1614025E0,-1.5789475E-1,1.7622708E-1,3.5957563E-1,4.6567768E-1,1.0625975E0,-6.0808176E-1,9.485351E-1,2.7691728E-1,1.3619359E0,-1.7978313E0,1.6775846E0,1.3619359E0,-1.5322479E-2,1.416578E-1,1.1000537E-1,-9.287304E-2,-8.970413E-3,1.7152502E-1,1.8768781E-1,1.5267913E-1,-1E-1,1.1053409E-1,1.0815664E-1,-1.20000005E-1,1.7495992E-2,-1.665214E-1,-1.3846155E-1,1.1053409E-1,-1E-1,1.6997783E-1,-1.3817033E-1,-1.9784367E-1,1.1929732E-1,-6.869904E-2,-1.7056094E-1,3.8961347E-2,3.1204948E-2,-1.9354838E-1],"split_indices":[0,6,11,4,3,6,6,24,5,5,11,10,5,8,4,3,0,15,3,0,0,29,1,7,7,1,16,0,15,5,0,0,0,0,0,0,0,0,0,0,0,0,0,0,0,0,0,0,0,0,0,0,0,0,0,0,0],"split_type":[0,0,0,0,0,0,0,0,0,0,0,0,0,0,0,0,0,0,0,0,0,0,0,0,0,0,0,0,0,0,0,0,0,0,0,0,0,0,0,0,0,0,0,0,0,0,0,0,0,0,0,0,0,0,0,0,0],"sum_hessian":[1.873E3,7.382151E2,1.1347849E3,3.9373813E2,3.4447693E2,1.2998418E2,1.0048008E3,6.7329155E1,3.26409E2,1.116293E1,3.33314E2,7.653562E1,5.344855E1,6.93031E2,3.117698E2,5.882916E1,8.5E0,1.9927309E2,1.2713589E2,3.75E0,7.412929E0,3.3107852E2,2.2354882E0,3.643074E1,4.010488E1,3.4854882E0,4.9963062E1,6.534842E2,3.9546833E1,8.311939E1,2.286504E2,3.7546833E1,2.1282322E1,1.8456664E2,1.4706465E1,5.2209764E0,1.2191491E2,2.264169E2,1.0466161E2,1E0,1.2354882E0,3.493074E1,1.5E0,2.0369394E1,1.9735489E1,2.25E0,1.2354882E0,1E0,4.8963062E1,5.617342E2,9.175E1,8.91293E0,3.0633905E1,7.2941956E1,1.0177441E1,1.986504E2,3E1],"tree_param":{"num_deleted":"0","num_feature":"34","num_nodes":"57","size_leaf_vector":"0"}},{"base_weights":[-1.0016242E-4,1.231101E0,-8.003146E-1,9.3575567E-1,1.566175E0,5.926829E-1,-9.808831E-1,1.1358067E-1,1.1048049E0,5.473871E-1,1.5985616E0,5.691713E-2,1.3474401E0,-1.2663862E0,-3.457912E-1,3.8887525E-1,-1.6414843E0,8.5449016E-1,1.4889432E0,-1.4617146E0,1.618406E0,1.6080585E0,1.3454263E-1,8.645235E-1,-6.802476E-1,-4.1476572E-1,1.476496E0,-1.3295754E0,-2.189937E-1,-1.3129544E0,8.245322E-3,-1.3830799E-1,1.2876527E0,9.937355E-1,-8.435336E-1,-8.217715E-2,1.5568388E0,1.7054278E0,1.3838074E0,-1.2670497E0,9.8887044E-1,1.5829481E-1,-1.5170519E0,-1.2931875E0,1.0460764E0,1.6082116E0,3.6686006E-1,-1.4632332E0,-1.0510236E0,8.372781E-1,-7.8491837E-1,-4.382002E-2,-1.6803138E0,2.8107148E-1,-1.7646555E0],"categories":[],"categories_nodes":[],"categories_segments":[],"categories_sizes":[],"default_left":[1,1,1,1,1,1,1,1,1,1,1,1,1,1,1,1,0,1,1,0,0,1,0,1,1,1,1,1,1,1,1,0,0,0,0,0,0,0,0,0,0,0,0,0,0,0,0,0,0,0,0,0,0,0,0],"id":1,"left_children":[1,3,5,7,9,11,13,15,17,19,21,23,25,27,29,31,-1,33,35,-1,-1,37,-1,39,41,43,45,47,49,51,53,-1,-1,-1,-1,-1,-1,-1,-1,-1,-1,-1,-1,-1,-1,-1,-1,-1,-1,-1,-1,-1,-1,-1,-1],"loss_changes":[1.8379966E3,7.126001E1,2.849829E2,5.4507996E1,1.0435791E1,5.2641476E1,1.8112018E2,3.356706E1,3.0067444E1,2.836438E1,4.395691E0,4.660215E1,1.2911316E1,4.540222E1,1.0681242E2,2.8474903E1,0E0,4.805194E1,1.3701263E1,0E0,0E0,4.8344727E0,0E0,1.1145693E1,2.8986618E1,7.0900836E0,6.806793E0,2.2696167E1,2.485439E1,3.8897293E1,1.11418015E2,0E0,0E0,0E0,0E0,0E0,0E0,0E0,0E0,0E0,0E0,0E0,0E0,0E0,0E0,0E0,0E0,0E0,0E0,0E0,0E0,0E0,0E0,0E0,0E0],"parents":[2147483647,0,0,1,1,2,2,3,3,4,4,5,5,6,6,7,7,8,8,9,9,10,10,11,11,12,12,13,13,14,14,15,15,17,17,18,18,21,21,23,23,24,24,25,25,26,26,27,27,28,28,29,29,30,30],"right_children":[2,4,6,8,10,12,14,16,18,20,22,24,26,28,30,32,-1,34,36,-1,-1,38,-1,40,42,44,46,48,50,52,54,-1,-1,-1,-1,-1,-1,-1,-1,-1,-1,-1,-1,-1,-1,-1,-1,-1,-1,-1,-1,-1,-1,-1,-1],"split_conditions":[-1.0337988E0,4.894395E-1,-1.0947043E0,-4.098464E-1,-1.1614025E0,4.894395E-1,4.894395E-1,2.8388137E-1,-2.719074E-1,-2.719074E-1,1.3689767E0,-1.1130482E0,-1.0517042E0,2.5779219E0,-4.098464E-1,7.803037E-1,-1.6414843E-1,5.602125E-1,-1.1614025E0,-1.4617147E-1,1.618406E-1,3.5957563E-1,1.3454263E-2,-5.210601E-2,-6.0808176E-1,9.485351E-1,1.4131147E-1,4.0982985E-1,-8.865283E-1,-5.546519E-1,1.3619359E0,-1.3830799E-2,1.2876527E-1,9.937355E-2,-8.435336E-2,-8.217715E-3,1.5568388E-1,1.7054278E-1,1.3838075E-1,-1.2670498E-1,9.888705E-2,1.5829481E-2,-1.5170519E-1,-1.2931876E-1,1.0460764E-1,1.6082117E-1,3.6686007E-2,-1.4632332E-1,-1.0510236E-1,8.3727814E-2,-7.849184E-2,-4.382002E-3,-1.6803138E-1,2.810715E-2,-1.7646556E-1],"split_indices":[0,6,11,4,3,6,6,24,5,5,11,10,5,8,4,3,0,15,3,0,0,29,0,15,7,1,15,33,7,0,0,0,0,0,0,0,0,0,0,0,0,0,0,0,0,0,0,0,0,0,0,0,0,0,0],"split_type":[0,0,0,0,0,0,0,0,0,0,0,0,0,0,0,0,0,0,0,0,0,0,0,0,0,0,0,0,0,0,0,0,0,0,0,0,0,0,0,0,0,0,0,0,0,0,0,0,0,0,0,0,0,0,0],"sum_hessian":[1.86356E3,7.3388074E2,1.1296793E3,3.920805E2,3.4180023E2,1.293701E2,1.0003092E3,6.7152855E1,3.2492764E2,1.1082396E1,3.3071783E2,7.6290535E1,5.3079567E1,6.893988E2,3.1091043E2,5.8720543E1,8.432314E0,1.9868419E2,1.26243454E2,3.7267241E0,7.3556714E0,3.2848862E2,2.2292264E0,3.63234E1,3.996714E1,3.4709723E0,4.9608597E1,6.499197E2,3.9479084E1,8.258761E1,2.2832283E2,3.7544632E1,2.117591E1,1.8400938E2,1.4674797E1,5.220871E0,1.2102258E2,2.2443457E2,1.0405403E2,1.4956218E0,3.4827778E1,2.0367834E1,1.9599304E1,2.2392502E0,1.2317221E0,4.394315E1,5.6654434E0,4.3631097E2,2.1360875E2,1.3605524E1,2.587356E1,1.8790487E1,6.379712E1,1.9860204E2,2.9720785E1],"tree_param":{"num_deleted":"0","num_feature":"34","num_nodes":"55","size_leaf_vector":"0"}},{"base_weights":[-1.1464312E-4,1.1268113E0,-7.296656E-1,8.523896E-1,1.4410913E0,5.401325E-1,-8.942061E-1,1.02235705E-1,1.0074028E0,5.033751E-1,1.4709038E0,4.933147E-2,1.2378023E0,-1.1564199E0,-3.1483033E-1,3.5386243E-1,-1.5248454E0,1.4108047E0,7.6309806E-1,-1.3652619E0,1.5043564E0,1.3686922E0,1.6675256E0,7.8285074E-1,-6.215812E-1,-1.1112012E0,1.3155062E0,-1.2149384E0,-1.9753684E-1,-6.42511E-1,6.614965E-1,-6.6863847E-1,7.358273E-1,1.616509E0,9.015941E-1,7.629295E-2,1.0459845E0,1.5228038E0,9.3068963E-1,9.651485E-1,-6.778569E-1,4.2523625E-1,-1.1819868E0,-3.0135292E-1,1.4273734E0,-1.133995E0,-1.6971422E0,1.0776312E0,-5.901723E-1,-1.5914203E-1,-1.7102532E0,1.1157736E0,-8.311159E-1],"categories":[],"categories_nodes":[],"categories_segments":[],"categories_sizes":[],"default_left":[1,1,1,1,1,1,1,1,1,1,1,1,1,1,1,1,0,1,1,0,0,1,0,1,1,0,1,1,1,1,1,0,0,0,0,0,0,0,0,0,0,0,0,0,0,0,0,0,0,0,0,0,0],"id":2,"left_children":[1,3,5,7,9,11,13,15,17,19,21,23,25,27,29,31,-1,33,35,-1,-1,37,-1,39,41,-1,43,45,47,49,51,-1,-1,-1,-1,-1,-1,-1,-1,-1,-1,-1,-1,-1,-1,-1,-1,-1,-1,-1,-1,-1,-1],"loss_changes":[1.5139592E3,6.1183105E1,2.3403119E2,4.5104797E1,8.649292E0,4.4060596E1,1.5003082E2,2.8253632E1,3.0665344E1,2.425583E1,4.2493896E0,3.822422E1,1.11669235E1,3.798053E1,9.95422E1,2.3705605E1,0E0,1.114418E1,3.9316803E1,0E0,0E0,1.3394257E1,0E0,1.05266285E1,2.4324936E1,0E0,9.82225E0,2.3124573E1,2.0849241E1,1.1970867E2,5.4050186E1,0E0,0E0,0E0,0E0,0E0,0E0,0E0,0E0,0E0,0E0,0E0,0E0,0E0,0E0,0E0,0E0,0E0,0E0,0E0,0E0,0E0,0E0],"parents":[2147483647,0,0,1,1,2,2,3,3,4,4,5,5,6,6,7,7,8,8,9,9,10,10,11,11,12,12,13,13,14,14,15,15,17,17,18,18,21,21,23,23,24,24,26,26,27,27,28,28,29,29,30,30],"right_children":[2,4,6,8,10,12,14,16,18,20,22,24,26,28,30,32,-1,34,36,-1,-1,38,-1,40,42,-1,44,46,48,50,52,-1,-1,-1,-1,-1,-1,-1,-1,-1,-1,-1,-1,-1,-1,-1,-1,-1,-1,-1,-1,-1,-1],"split_conditions":[-1.0337988E0,4.894395E-1,-1.0947043E0,-4.098464E-1,-1.1614025E0,4.894395E-1,4.894395E-1,2.8388137E-1,-4.6170515E-1,-2.719074E-1,-2.719074E-1,-1.1130482E0,2.7691728E-1,2.5779219E0,8.9778787E-1,-1.9054931E-1,-1.5248454E-1,1.8422091E-1,-6.618058E-1,-1.365262E-1,1.5043564E-1,3.5957563E-1,1.6675256E-1,4.0145916E-1,-8.865283E-1,-1.1112012E-1,-1.0517042E0,1.3619359E0,-1.7978313E0,5.234287E-1,2.8388137E-1,-6.686385E-2,7.358273E-2,1.616509E-1,9.015941E-2,7.629295E-3,1.04598455E-1,1.5228038E-1,9.3068965E-2,9.651485E-2,-6.7785695E-2,4.2523626E-2,-1.18198685E-1,-3.0135293E-2,1.4273734E-1,-1.13399506E-1,-1.6971423E-1,1.0776313E-1,-5.901723E-2,-1.5914204E-2,-1.7102532E-1,1.11577354E-1,-8.311159E-2],"split_indices":[0,6,11,4,3,6,6,24,17,5,5,10,16,8,5,3,0,19,5,0,0,29,0,18,7,0,5,0,15,0,24,0,0,0,0,0,0,0,0,0,0,0,0,0,0,0,0,0,0,0,0,0,0],"split_type":[0,0,0,0,0,0,0,0,0,0,0,0,0,0,0,0,0,0,0,0,0,0,0,0,0,0,0,0,0,0,0,0,0,0,0,0,0,0,0,0,0,0,0,0,0,0,0,0,0,0,0,0,0],"sum_hessian":[1.8394637E3,7.2265125E2,1.1168125E3,3.8777118E2,3.3488004E2,1.27853584E2,9.88959E2,6.6691475E1,3.210797E2,1.0869735E1,3.240103E2,7.568262E1,5.2170967E1,6.801436E2,3.088153E2,5.843679E1,8.2546835E0,1.1930525E2,2.0177446E2,3.6646407E0,7.2050943E0,2.1842543E2,1.0558488E2,3.607472E1,3.96079E1,1.2446471E0,5.092632E1,6.407717E2,3.9371906E1,2.3146991E2,7.7345406E1,1.5688621E1,4.274817E1,8.34284E1,3.587685E1,5.9233715E1,1.4254076E2,1.5974303E2,5.8682407E1,3.2373707E1,3.7010112E0,1.3894559E1,2.5713337E1,3.185872E0,4.7740448E1,5.515411E2,8.923069E1,8.858244E0,3.0513664E1,1.6012848E2,7.134143E1,5.9491592E1,1.7853815E1],"tree_param":{"num_deleted":"0","num_feature":"34","num_nodes":"53","size_leaf_vector":"0"}},{"base_weights":[7.845458E-5,1.038167E0,-6.683941E-1,7.7924734E-1,1.3393974E0,4.94402E-1,-8.189817E-1,5.748169E-1,1.2781873E0,4.671527E-1,1.367114E0,4.4162475E-2,1.1435004E0,-1.0630556E0,-2.8638119E-1,1.1099218E0,2.4185139E-1,1.3156781E0,-1.1859614E0,-1.2842872E0,1.4115404E0,1.1673344E0,1.4628242E0,7.125181E-1,-5.6809396E-1,-1.0515479E0,1.2180462E0,-1.1179447E0,-1.774587E-1,-1.1589874E0,2.7530637E-2,-1.4504744E0,1.1797897E0,-7.9746425E-1,4.6653697E-1,-7.550524E-2,1.3823565E0,1.2246242E0,-1.5113119E0,1.4705483E0,3.0880222E-1,-1.2314996E0,8.3012223E-1,1.515618E-1,-1.3140167E0,-2.7874076E-1,1.3242596E0,-1.0406868E0,-1.5859817E0,1.1868712E0,-5.343642E-1,-1.3523303E0,8.056748E-1,-4.6578208E-1,7.8973204E-1],"categories":[],"categories_nodes":[],"categories_segments":[],"categories_sizes":[],"default_left":[1,1,1,1,1,1,1,1,1,1,1,1,1,1,1,1,1,1,0,0,0,1,1,1,1,0,1,1,1,1,1,0,0,0,0,0,0,0,0,0,0,0,0,0,0,0,0,0,0,0,0,0,0,0,0],"id":3,"left_children":[1,3,5,7,9,11,13,15,17,19,21,23,25,27,29,31,33,35,-1,-1,-1,37,39,41,43,-1,45,47,49,51,53,-1,-1,-1,-1,-1,-1,-1,-1,-1,-1,-1,-1,-1,-1,-1,-1,-1,-1,-1,-1,-1,-1,-1,-1],"loss_changes":[1.2550647E3,5.4211548E1,1.9304797E2,3.8368744E1,7.244446E0,3.699658E1,1.2636249E2,4.8508682E1,1.17786255E1,2.0935879E1,4.3253784E0,3.1458527E1,9.769562E0,3.2264343E1,8.428497E1,2.0446228E1,4.007865E1,1.0254791E1,0E0,0E0,0E0,1.8293533E1,1.4121399E0,9.418623E0,2.1758732E1,0E0,8.419266E0,2.1081665E1,2.0191877E1,3.2009064E1,8.578932E1,0E0,0E0,0E0,0E0,0E0,0E0,0E0,0E0,0E0,0E0,0E0,0E0,0E0,0E0,0E0,0E0,0E0,0E0,0E0,0E0,0E0,0E0,0E0,0E0],"parents":[2147483647,0,0,1,1,2,2,3,3,4,4,5,5,6,6,7,7,8,8,9,9,10,10,11,11,12,12,13,13,14,14,15,15,16,16,17,17,21,21,22,22,23,23,24,24,26,26,27,27,28,28,29,29,30,30],"right_children":[2,4,6,8,10,12,14,16,18,20,22,24,26,28,30,32,34,36,-1,-1,-1,38,40,42,44,-1,46,48,50,52,54,-1,-1,-1,-1,-1,-1,-1,-1,-1,-1,-1,-1,-1,-1,-1,-1,-1,-1,-1,-1,-1,-1,-1,-1],"split_conditions":[-1.0337988E0,4.894395E-1,-1.0947043E0,5.0788945E-1,-1.1614025E0,4.894395E-1,4.894395E-1,-8.3169395E-1,8.816613E-1,-2.719074E-1,-3.7932295E-1,-1.1130482E0,2.7691728E-1,2.5779219E0,-4.098464E-1,-5.019497E-1,-4.098464E-1,-1.1614025E0,-1.1859614E-1,-1.2842873E-1,1.4115404E-1,9.2825717E-1,2.690752E0,-5.210601E-2,-6.0808176E-1,-1.0515479E-1,-1.0517042E0,1.3619359E0,-5.546519E-1,2.0674832E0,4.0982985E-1,-1.4504744E-1,1.1797897E-1,-7.9746425E-2,4.66537E-2,-7.550524E-3,1.3823566E-1,1.22462414E-1,-1.511312E-1,1.4705484E-1,3.0880222E-2,-1.23149954E-1,8.301222E-2,1.515618E-2,-1.3140167E-1,-2.7874077E-2,1.3242596E-1,-1.0406869E-1,-1.5859817E-1,1.18687116E-1,-5.3436425E-2,-1.3523303E-1,8.056748E-2,-4.657821E-2,7.8973204E-2],"split_indices":[0,6,11,5,3,6,6,10,13,5,1,10,16,8,4,15,4,3,0,0,0,15,9,15,7,0,5,0,0,5,33,0,0,0,0,0,0,0,0,0,0,0,0,0,0,0,0,0,0,0,0,0,0,0,0],"split_type":[0,0,0,0,0,0,0,0,0,0,0,0,0,0,0,0,0,0,0,0,0,0,0,0,0,0,0,0,0,0,0,0,0,0,0,0,0,0,0,0,0,0,0,0,0,0,0,0,0,0,0,0,0,0,0],"sum_hessian":[1.8066233E3,7.07451E2,1.0991722E3,3.8237296E2,3.2507803E2,1.2576513E2,9.734071E2,2.7276508E2,1.0960789E2,1.0561436E1,3.145166E2,7.488799E1,5.0877136E1,6.66826E2,3.0658115E2,1.0372937E2,1.690357E2,1.0842433E2,1.1835517E0,3.5737412E0,6.9876947E0,1.0614759E2,2.08369E2,3.572541E1,3.916258E1,1.2406054E0,4.963653E1,6.276613E2,3.9164665E1,8.039859E1,2.2618257E2,2.2304783E0,1.0149889E2,2.9594202E1,1.3944151E2,4.952966E0,1.0347137E2,1.04456345E2,1.691247E0,2.0671118E2,1.6578215E0,1.497637E0,3.4227776E1,2.0337784E1,1.8824795E1,3.1812477E0,4.6455284E1,5.415004E2,8.616084E1,7.6387687E0,3.1525896E1,7.3479164E1,6.9194293E0,1.3754771E2,8.863486E1],"tree_param":{"num_deleted":"0","num_feature":"34","num_nodes":"55","size_leaf_vector":"0"}},{"base_weights":[2.9612127E-5,9.60511E-1,-6.144303E-1,7.136995E-1,1.2536012E0,3.9246485E-1,-7.623816E-1,4.843368E-1,1.1076747E0,1.1333715E0,1.4792463E0,-7.702008E-2,1.0845982E0,-9.8068213E-1,-2.9051217E-1,1.0739266E0,1.0116065E-1,1.1533778E0,-1.3934568E0,-1.2151066E0,1.1787684E0,5.880589E-1,-6.5750045E-1,-1.1691681E0,1.1775845E0,-1.0340344E0,-1.4742391E-1,-5.5874264E-1,5.632185E-1,-1.1920593E0,1.1292139E0,7.373582E-1,-4.2713857E-1,-3.663284E-1,1.2256858E0,1.3350238E0,7.487245E-1,7.546741E-1,-5.8716506E-1,8.4780836E-1,-9.2916334E-1,-2.578899E-1,1.2714548E0,-1.1700711E0,-7.580596E-1,8.060227E-1,-6.5412915E-1,-1.2704995E-1,-1.5470358E0,9.7519535E-1,-7.039489E-1],"categories":[],"categories_nodes":[],"categories_segments":[],"categories_sizes":[],"default_left":[1,1,1,1,1,1,1,1,1,1,0,1,1,1,1,1,1,1,0,0,1,1,1,0,1,1,1,1,1,0,0,0,0,0,0,0,0,0,0,0,0,0,0,0,0,0,0,0,0,0,0],"id":4,"left_children":[1,3,5,7,9,11,13,15,17,19,-1,21,23,25,27,29,31,33,-1,-1,35,37,39,-1,41,43,45,47,49,-1,-1,-1,-1,-1,-1,-1,-1,-1,-1,-1,-1,-1,-1,-1,-1,-1,-1,-1,-1,-1,-1],"loss_changes":[1.0444456E3,4.9051147E1,1.6107883E2,3.3542984E1,6.8504944E0,4.52278E1,9.668152E1,5.414394E1,1.7381256E1,2.3749817E1,0E0,3.2705013E1,1.3158005E1,2.844049E1,6.882249E1,1.3183792E1,4.9605904E1,1.5400833E1,0E0,0E0,1.2834106E1,8.185666E0,1.925986E1,0E0,7.669922E0,2.180011E1,1.9788828E1,9.713896E1,3.8284218E1,0E0,0E0,0E0,0E0,0E0,0E0,0E0,0E0,0E0,0E0,0E0,0E0,0E0,0E0,0E0,0E0,0E0,0E0,0E0,0E0,0E0,0E0],"parents":[2147483647,0,0,1,1,2,2,3,3,4,4,5,5,6,6,7,7,8,8,9,9,11,11,12,12,13,13,14,14,15,15,16,16,17,17,20,20,21,21,22,22,24,24,25,25,26,26,27,27,28,28],"right_children":[2,4,6,8,10,12,14,16,18,20,-1,22,24,26,28,30,32,34,-1,-1,36,38,40,-1,42,44,46,48,50,-1,-1,-1,-1,-1,-1,-1,-1,-1,-1,-1,-1,-1,-1,-1,-1,-1,-1,-1,-1,-1,-1],"split_conditions":[-1.0337988E0,4.894395E-1,-1.069649E0,-2.719074E-1,-2.719074E-1,4.894395E-1,4.894395E-1,-8.3169395E-1,8.816613E-1,-1.1614025E0,1.4792463E-1,-1.1130482E0,2.7691728E-1,2.5779219E0,8.9778787E-1,-5.019497E-1,-3.6429042E-1,-1.1614025E0,-1.3934569E-1,-1.2151066E-1,3.5957563E-1,-1.1211857E0,-1.1649749E0,-1.1691681E-1,-1.0517042E0,4.0982985E-1,-8.865283E-1,5.234287E-1,2.8388137E-1,-1.1920593E-1,1.12921394E-1,7.3735826E-2,-4.271386E-2,-3.663284E-2,1.22568585E-1,1.3350238E-1,7.487246E-2,7.546741E-2,-5.8716506E-2,8.4780835E-2,-9.291633E-2,-2.578899E-2,1.2714548E-1,-1.17007114E-1,-7.580596E-2,8.060227E-2,-6.5412916E-2,-1.2704995E-2,-1.5470359E-1,9.751954E-2,-7.0394896E-2],"split_indices":[0,6,11,5,5,6,6,10,13,3,0,10,16,8,5,15,15,3,0,0,29,11,7,0,5,33,7,0,24,0,0,0,0,0,0,0,0,0,0,0,0,0,0,0,0,0,0,0,0,0,0],"split_type":[0,0,0,0,0,0,0,0,0,0,0,0,0,0,0,0,0,0,0,0,0,0,0,0,0,0,0,0,0,0,0,0,0,0,0,0,0,0,0,0,0,0,0,0,0,0,0,0,0,0,0],"sum_hessian":[1.7677147E3,6.894503E2,1.0782644E3,3.7613864E2,3.1331168E2,1.3792842E2,9.4033606E2,2.3914412E2,1.369945E2,2.0833046E2,1.0498122E2,8.271217E1,5.5216244E1,6.4217084E2,2.9816516E2,9.348968E1,1.4565445E2,1.3506532E2,1.9291849E0,3.4621115E0,2.0486835E2,3.8541092E1,4.4171085E1,1.7292733E0,5.3486973E1,6.033014E2,3.886945E1,2.2714488E2,7.102029E1,1.7369902E0,9.1752686E1,6.589977E1,7.975468E1,5.9498873E0,1.2911543E2,1.487251E2,5.614325E1,3.4068886E1,4.472206E0,6.428633E0,3.774245E1,3.1757486E0,5.0311222E1,4.0193506E2,2.0136636E2,1.3283575E1,2.5585876E1,1.5887558E2,6.8269295E1,5.3769386E1,1.7250896E1],"tree_param":{"num_deleted":"0","num_feature":"34","num_nodes":"51","size_leaf_vector":"0"}},{"base_weights":[1.12282134E-4,8.9248955E-1,-5.6658006E-1,6.5559715E-1,1.1804986E0,3.6183512E-1,-7.029632E-1,8.249701E-3,7.9337513E-1,1.06262E0,1.4042851E0,-7.0369355E-2,1.0110408E0,-9.086194E-1,-2.654886E-1,-2.5328553E-1,1.469051E0,1.1904379E0,5.5657923E-1,-1.1550852E0,1.105794E0,5.3708696E-1,-6.0176486E-1,-1.104953E0,1.1005692E0,-8.204959E-1,-1.4655068E0,-6.3248384E-1,3.122584E-1,-7.312781E-1,9.955598E-1,6.774062E-1,1.7184591E0,1.3900826E0,7.1436065E-1,6.161557E-1,-1.8932042E0,1.2611148E0,6.8934906E-1,6.899699E-1,-7.362308E-1,4.13782E-3,-1.2256895E0,-2.3864537E-1,1.1911542E0,-1.036044E0,-3.6894578E-1,-1.1229748E0,2.2697935E-1,-3.7142724E-1,1.150278E0],"categories":[],"categories_nodes":[],"categories_segments":[],"categories_sizes":[],"default_left":[1,1,1,1,1,1,1,1,1,1,0,1,1,1,1,1,1,1,1,0,1,1,1,0,1,1,0,1,1,0,0,0,0,0,0,0,0,0,0,0,0,0,0,0,0,0,0,0,0,0,0],"id":5,"left_children":[1,3,5,7,9,11,13,15,17,19,-1,21,23,25,27,29,31,33,35,-1,37,39,41,-1,43,45,-1,47,49,-1,-1,-1,-1,-1,-1,-1,-1,-1,-1,-1,-1,-1,-1,-1,-1,-1,-1,-1,-1,-1,-1],"loss_changes":[8.7288257E2,4.496527E1,1.339248E2,3.3001816E1,6.4561462E0,3.819639E1,8.2603E1,2.5570566E1,2.8026978E1,2.0566711E1,0E0,2.6955902E1,1.1516029E1,2.9515625E1,6.2929207E1,3.4630215E1,8.423939E-1,9.75798E0,2.933776E1,0E0,1.1945923E1,8.105098E0,1.681998E1,0E0,6.673073E0,5.2438904E1,0E0,7.666738E1,6.665945E1,0E0,0E0,0E0,0E0,0E0,0E0,0E0,0E0,0E0,0E0,0E0,0E0,0E0,0E0,0E0,0E0,0E0,0E0,0E0,0E0,0E0,0E0],"parents":[2147483647,0,0,1,1,2,2,3,3,4,4,5,5,6,6,7,7,8,8,9,9,11,11,12,12,13,13,14,14,15,15,16,16,17,17,18,18,20,20,21,21,22,22,24,24,25,25,27,27,28,28],"right_children":[2,4,6,8,10,12,14,16,18,20,-1,22,24,26,28,30,32,34,36,-1,38,40,42,-1,44,46,-1,48,50,-1,-1,-1,-1,-1,-1,-1,-1,-1,-1,-1,-1,-1,-1,-1,-1,-1,-1,-1,-1,-1,-1],"split_conditions":[-1.0337988E0,4.894395E-1,-1.069649E0,-4.098464E-1,-2.719074E-1,4.894395E-1,4.894395E-1,-2.7200855E-2,-4.6170515E-1,-1.1614025E0,1.4042851E-1,-1.1130482E0,2.7691728E-1,1.3619359E0,4.0982985E-1,5.0788945E-1,5.7507694E-1,1.8422091E-1,2.0349646E0,-1.1550852E-1,3.5957563E-1,4.0145916E-1,-6.0808176E-1,-1.1049531E-1,-1.0517042E0,3.031029E-1,-1.4655069E-1,2.7691728E-1,3.9371157E-1,-7.312781E-2,9.9555984E-2,6.774062E-2,1.7184591E-1,1.3900827E-1,7.143607E-2,6.1615568E-2,-1.8932043E-1,1.2611149E-1,6.893491E-2,6.899699E-2,-7.362308E-2,4.1378202E-4,-1.2256896E-1,-2.3864537E-2,1.1911543E-1,-1.036044E-1,-3.689458E-2,-1.12297475E-1,2.2697935E-2,-3.7142724E-2,1.150278E-1],"split_indices":[0,6,11,4,5,6,6,11,17,3,0,10,16,0,33,5,10,19,1,0,29,18,7,0,5,11,0,16,28,0,0,0,0,0,0,0,0,0,0,0,0,0,0,0,0,0,0,0,0,0,0],"split_type":[0,0,0,0,0,0,0,0,0,0,0,0,0,0,0,0,0,0,0,0,0,0,0,0,0,0,0,0,0,0,0,0,0,0,0,0,0,0,0,0,0,0,0,0,0,0,0,0,0,0,0],"sum_hessian":[1.7240763E3,6.6939575E2,1.0546804E3,3.6908957E2,3.003062E2,1.3487546E2,9.19805E2,6.495579E1,3.041338E2,2.0046207E2,9.984414E1,8.150539E1,5.3370075E1,6.249431E2,2.948619E2,5.5793404E1,9.162385E0,1.12113304E2,1.9202048E2,3.3362358E0,1.9712582E2,3.8025932E1,4.3479454E1,1.7060405E0,5.1664032E1,5.416968E2,8.324636E1,1.802617E2,1.146002E2,4.0649384E1,1.5144018E1,3.085326E0,6.0770593E0,7.763637E1,3.4476936E1,1.8819229E2,3.82818E0,1.4209904E2,5.502678E1,3.435873E1,3.6672034E0,2.2562267E1,2.0917189E1,3.1696227E0,4.849441E1,3.657913E2,1.7590546E2,1.145704E2,6.569131E1,6.34182E1,5.1182E1],"tree_param":{"num_deleted":"0","num_feature":"34","num_nodes":"51","size_leaf_vector":"0"}},{"base_weights":[3.1774864E-4,8.3142614E-1,-5.228688E-1,6.032217E-1,1.1166692E0,3.9176488E-1,-6.405039E-1,4.250204E-1,1.0618695E0,9.9979E-1,1.3417892E0,4.1791197E-2,9.285078E-1,-8.452345E-1,-2.1583952E-1,8.981323E-1,1.4067498E-1,1.0984654E0,-1.0951666E0,-1.1022928E0,1.040998E0,3.811E-1,-9.222072E-1,3.4898776E-1,1.2684846E0,-7.59813E-1,-1.4011253E0,-1.0191127E0,6.261185E-2,-1.2188836E0,9.589973E-1,-4.0813712E-3,1.5136715E0,-1.2863658E-1,1.1636313E0,1.1969825E0,6.3515294E-1,1.0766227E0,-5.1546596E-2,-1.3379612E0,5.042891E-1,6.6379166E-1,-1.4366639E0,-9.625786E-1,-3.356419E-1,1.0138627E-1,-1.3721522E0,2.630054E-1,-1.4130859E0],"categories":[],"categories_nodes":[],"categories_segments":[],"categories_sizes":[],"default_left":[1,1,1,1,1,1,1,1,1,1,0,1,1,1,1,1,1,1,0,0,1,1,1,1,0,1,0,1,1,0,0,0,0,0,0,0,0,0,0,0,0,0,0,0,0,0,0,0,0],"id":6,"left_children":[1,3,5,7,9,11,13,15,17,19,-1,21,23,25,27,29,31,33,-1,-1,35,37,39,41,-1,43,-1,45,47,-1,-1,-1,-1,-1,-1,-1,-1,-1,-1,-1,-1,-1,-1,-1,-1,-1,-1,-1,-1],"loss_changes":[7.313775E2,4.1623413E1,1.11310455E2,2.9230362E1,6.2264404E0,2.2173956E1,7.936667E1,3.5282448E1,9.171967E0,1.7887497E1,0E0,2.410678E1,8.743393E0,2.8233795E1,6.693419E1,1.3876518E1,3.29167E1,8.127495E0,0E0,0E0,1.1271042E1,1.6432974E1,1.2061737E1,1.1419676E1,0E0,4.586328E1,0E0,3.0605095E1,6.630241E1,0E0,0E0,0E0,0E0,0E0,0E0,0E0,0E0,0E0,0E0,0E0,0E0,0E0,0E0,0E0,0E0,0E0,0E0,0E0,0E0],"parents":[2147483647,0,0,1,1,2,2,3,3,4,4,5,5,6,6,7,7,8,8,9,9,11,11,12,12,13,13,14,14,15,15,16,16,17,17,20,20,21,21,22,22,23,23,25,25,27,27,28,28],"right_children":[2,4,6,8,10,12,14,16,18,20,-1,22,24,26,28,30,32,34,-1,-1,36,38,40,42,-1,44,-1,46,48,-1,-1,-1,-1,-1,-1,-1,-1,-1,-1,-1,-1,-1,-1,-1,-1,-1,-1,-1,-1],"split_conditions":[-1.0337988E0,4.894395E-1,-1.0947043E0,5.0788945E-1,-2.719074E-1,4.894395E-1,4.894395E-1,-8.3169395E-1,8.816613E-1,-1.1614025E0,1.3417892E-1,4.0145916E-1,3.1263822E-1,1.3619359E0,-4.098464E-1,-5.019497E-1,1.1377853E0,-1.1614025E0,-1.0951666E-1,-1.10229276E-1,3.5957563E-1,-8.865283E-1,4.0982985E-1,-1.107945E0,1.2684846E-1,3.031029E-1,-1.4011253E-1,-5.546519E-1,1.3619359E0,-1.2188836E-1,9.589973E-2,-4.0813713E-4,1.5136716E-1,-1.2863658E-2,1.1636313E-1,1.1969825E-1,6.35153E-2,1.07662275E-1,-5.1546595E-3,-1.3379613E-1,5.042891E-2,6.637917E-2,-1.4366639E-1,-9.625786E-2,-3.356419E-2,1.0138627E-2,-1.3721523E-1,2.630054E-2,-1.4130859E-1],"split_indices":[0,6,11,5,5,6,6,10,13,3,0,18,4,0,4,15,10,3,0,0,29,7,33,11,0,11,0,0,0,0,0,0,0,0,0,0,0,0,0,0,0,0,0,0,0,0,0,0,0],"split_type":[0,0,0,0,0,0,0,0,0,0,0,0,0,0,0,0,0,0,0,0,0,0,0,0,0,0,0,0,0,0,0,0,0,0,0,0,0,0,0,0,0,0,0,0,0,0,0,0,0],"sum_hessian":[1.6800055E3,6.487864E2,1.0312191E3,3.6216025E2,2.866261E2,1.1724989E2,9.1396924E2,2.6220917E2,9.995109E1,1.922525E2,9.437361E1,7.162557E1,4.562432E1,6.1600366E2,2.9796558E2,9.762159E1,1.6458757E2,9.876619E1,1.1849035E0,3.201265E0,1.8905124E2,5.3425495E1,1.8200075E1,1.761852E1,2.80058E1,5.360048E2,7.9998856E1,7.60159E1,2.2194968E2,2.196503E0,9.542509E1,1.4979189E2,1.4795676E1,4.9314127E0,9.383478E1,1.351555E2,5.3895733E1,1.9917562E1,3.3507935E1,1.414079E1,4.0592847E0,1.5512064E1,2.1064565E0,3.617899E2,1.742149E2,1.8383142E1,5.763276E1,1.9613689E2,2.5812792E1],"tree_param":{"num_deleted":"0","num_feature":"34","num_nodes":"49","size_leaf_vector":"0"}},{"base_weights":[2.9025628E-4,7.757552E-1,-4.8365623E-1,5.55156E-1,1.0598909E0,1.1245593E-1,-6.467895E-1,-4.2993456E-2,6.858616E-1,9.430567E-1,1.2888108E0,6.688563E-1,-4.424664E-1,-4.3359712E-1,-1.0303907E0,-2.8494442E-1,1.3032893E0,1.0823191E0,4.5422664E-1,-1.0552852E0,9.8249334E-1,2.2257328E-1,1.2965853E0,-9.893685E-2,-1.3626643E0,-2.8425482E-1,-1.3601412E0,-1.1817901E0,-2.9622805E-1,-1.6718516E0,6.42263E-2,6.257541E-1,1.5092376E0,1.2895542E0,6.4744216E-1,-1.2622246E-1,7.1274847E-1,1.1402808E0,5.8539516E-1,6.1342657E-1,-1.3587E0,1.5178673E0,7.991135E-2,4.206485E-1,-9.325246E-1,1.8720652E-1,-1.4601237E0,-5.6197685E-1,2.2852413E-1,-1.4824144E0,-8.7049556E-1,5.002202E-1,-1.5144259E0],"categories":[],"categories_nodes":[],"categories_segments":[],"categories_sizes":[],"default_left":[1,1,1,1,1,1,1,1,1,1,0,1,1,1,1,1,1,1,1,0,1,1,1,1,1,1,0,1,1,0,0,0,0,0,0,0,0,0,0,0,0,0,0,0,0,0,0,0,0,0,0,0,0],"id":7,"left_children":[1,3,5,7,9,11,13,15,17,19,-1,21,23,25,27,29,31,33,35,-1,37,39,41,43,45,47,-1,49,51,-1,-1,-1,-1,-1,-1,-1,-1,-1,-1,-1,-1,-1,-1,-1,-1,-1,-1,-1,-1,-1,-1,-1,-1],"loss_changes":[6.1405084E2,3.882141E1,9.8046555E1,2.786567E1,6.104828E0,6.739635E1,6.425528E1,2.1475922E1,2.6347153E1,1.5611603E1,0E0,3.0223412E1,3.4450657E1,7.021966E1,3.0983673E1,2.7100967E1,4.5788193E-1,8.813332E0,2.803048E1,0E0,1.0728531E1,4.0922977E1,1.2007462E1,3.536448E1,4.75391E0,6.2888336E1,0E0,2.0549072E1,4.881255E1,0E0,0E0,0E0,0E0,0E0,0E0,0E0,0E0,0E0,0E0,0E0,0E0,0E0,0E0,0E0,0E0,0E0,0E0,0E0,0E0,0E0,0E0,0E0,0E0],"parents":[2147483647,0,0,1,1,2,2,3,3,4,4,5,5,6,6,7,7,8,8,9,9,11,11,12,12,13,13,14,14,15,15,16,16,17,17,18,18,20,20,21,21,22,22,23,23,24,24,25,25,27,27,28,28],"right_children":[2,4,6,8,10,12,14,16,18,20,-1,22,24,26,28,30,32,34,36,-1,38,40,42,44,46,48,-1,50,52,-1,-1,-1,-1,-1,-1,-1,-1,-1,-1,-1,-1,-1,-1,-1,-1,-1,-1,-1,-1,-1,-1,-1,-1],"split_conditions":[-1.0337988E0,4.894395E-1,-8.3169395E-1,-4.098464E-1,-2.719074E-1,-5.0056237E-1,2.8388137E-1,-2.7200855E-2,-4.6170515E-1,-1.1614025E0,1.2888108E-1,4.894395E-1,4.0145916E-1,1.3619359E0,2.3547363E-1,-5.019497E-1,5.7507694E-1,-7.0780545E-2,-6.618058E-1,-1.05528526E-1,3.5957563E-1,-6.376976E-1,9.971889E-1,-1.00228235E-1,-1.1012228E0,4.894395E-1,-1.3601412E-1,-2.719074E-1,2.788006E-1,-1.6718517E-1,6.42263E-3,6.2575415E-2,1.5092377E-1,1.2895542E-1,6.474422E-2,-1.26222465E-2,7.127485E-2,1.1402809E-1,5.8539517E-2,6.1342657E-2,-1.3587001E-1,1.5178673E-1,7.991135E-3,4.206485E-2,-9.3252465E-2,1.8720653E-2,-1.4601237E-1,-5.6197684E-2,2.2852413E-2,-1.4824145E-1,-8.704956E-2,5.0022017E-2,-1.5144259E-1],"split_indices":[0,6,10,4,5,12,24,11,17,3,0,6,18,0,11,15,10,27,5,0,29,11,15,11,11,6,0,5,15,0,0,0,0,0,0,0,0,0,0,0,0,0,0,0,0,0,0,0,0,0,0,0,0],"split_type":[0,0,0,0,0,0,0,0,0,0,0,0,0,0,0,0,0,0,0,0,0,0,0,0,0,0,0,0,0,0,0,0,0,0,0,0,0,0,0,0,0,0,0,0,0,0,0,0,0,0,0,0,0],"sum_hessian":[1.6342318E3,6.2774475E2,1.0064871E3,3.5504565E2,2.726991E2,2.1632289E2,7.901642E2,6.3790688E1,2.9125497E2,1.8394067E2,8.875842E1,1.0791508E2,1.0840782E2,5.092635E2,2.8090073E2,5.474109E1,9.0496E0,1.0605787E2,1.851971E2,3.0612524E0,1.8087943E2,6.3864952E1,4.405012E1,7.974487E1,2.8662949E1,4.3969873E2,6.9564766E1,2.3237129E2,4.852942E1,1.0247987E1,4.4493103E1,3.0509365E0,5.998663E0,7.0497734E1,3.556014E1,5.7224625E1,1.2797248E2,1.2810513E2,5.2774292E1,5.1698402E1,1.2166552E1,3.7061943E1,6.988177E0,4.9429955E1,3.0314915E1,1.6412766E0,2.7021673E1,2.8515973E2,1.5453899E2,1.1629776E2,1.1607354E2,2.9700706E1,1.8828714E1],"tree_param":{"num_deleted":"0","num_feature":"34","num_nodes":"53","size_leaf_vector":"0"}},{"base_weights":[1.6298756E-4,7.2520167E-1,-4.471919E-1,5.119842E-1,1.0085411E0,-3.4677067E-1,-1.3218844E0,3.331888E-1,9.3161964E-1,8.9108646E-1,1.2432262E0,-1.1207429E-1,-7.784725E-1,8.3865577E-1,2.5947496E-2,9.7687507E-1,-1.1751841E0,-1.0129641E0,9.289012E-1,-4.186118E-1,4.098361E-1,-1.1987524E0,-3.219871E-1,-1.2646582E0,8.79853E-1,5.9111726E-1,-3.9599216E-1,-2.6114404E-1,1.0453169E0,1.0892907E0,5.3951365E-1,6.1246717E-1,-5.130349E-1,-5.7347685E-1,6.7892194E-1,-1.3584646E0,-4.5645055E-1,-1.0029593E0,2.2671345E-1],"categories":[],"categories_nodes":[],"categories_segments":[],"categories_sizes":[],"default_left":[1,1,1,1,1,1,0,1,1,1,0,1,1,1,1,1,0,0,1,1,1,1,1,0,0,0,0,0,0,0,0,0,0,0,0,0,0,0,0],"id":8,"left_children":[1,3,5,7,9,11,-1,13,15,17,-1,19,21,23,25,27,-1,-1,29,31,33,35,37,-1,-1,-1,-1,-1,-1,-1,-1,-1,-1,-1,-1,-1,-1,-1,-1],"loss_changes":[5.164256E2,3.6186768E1,8.603108E1,2.5851944E1,6.054657E0,8.95397E1,0E0,3.8193344E1,1.1028046E1,1.3663712E1,0E0,9.203918E1,5.9352203E1,9.170776E0,3.6976555E1,8.91497E0,0E0,0E0,1.0265701E1,3.558194E1,5.674215E1,1.8556183E1,5.6509007E1,0E0,0E0,0E0,0E0,0E0,0E0,0E0,0E0,0E0,0E0,0E0,0E0,0E0,0E0,0E0,0E0],"parents":[2147483647,0,0,1,1,2,2,3,3,4,4,5,5,7,7,8,8,9,9,11,11,12,12,13,13,14,14,15,15,18,18,19,19,20,20,21,21,22,22],"right_children":[2,4,6,8,10,12,-1,14,16,18,-1,20,22,24,26,28,-1,-1,30,32,34,36,38,-1,-1,-1,-1,-1,-1,-1,-1,-1,-1,-1,-1,-1,-1,-1,-1],"split_conditions":[-1.0337988E0,4.894395E-1,1.3619359E0,1.1799102E-1,-2.719074E-1,2.8388137E-1,-1.3218844E-1,-8.3169395E-1,8.816613E-1,-1.1614025E0,1.24322616E-1,4.894395E-1,4.0982985E-1,-1.3591104E0,-3.6429042E-1,-1.1614025E0,-1.1751842E-1,-1.0129642E-1,3.5957563E-1,-1.1568336E0,-4.098464E-1,1.0625975E0,-2.719074E-1,-1.2646583E-1,8.79853E-2,5.9111726E-2,-3.9599217E-2,-2.6114404E-2,1.045317E-1,1.08929075E-1,5.3951364E-2,6.124672E-2,-5.1303487E-2,-5.7347685E-2,6.7892194E-2,-1.3584647E-1,-4.5645054E-2,-1.0029592E-1,2.2671346E-2],"split_indices":[0,6,0,5,5,24,0,10,13,3,0,6,33,11,15,3,0,0,29,11,4,7,5,0,0,0,0,0,0,0,0,0,0,0,0,0,0,0,0],"split_type":[0,0,0,0,0,0,0,0,0,0,0,0,0,0,0,0,0,0,0,0,0,0,0,0,0,0,0,0,0,0,0,0,0,0,0,0,0,0,0],"sum_hessian":[1.5901884E3,6.0653754E2,9.836509E2,3.47697E2,2.5884055E2,8.836031E2,1.0004779E2,2.4507225E2,1.0262473E2,1.7570238E2,8.313817E1,5.732261E2,3.1037698E2,9.199476E1,1.530775E2,1.0099169E2,1.6330417E0,2.9193487E0,1.7278304E2,3.61249E2,2.1197711E2,1.607503E2,1.4962666E2,1.196761E0,9.0798E1,6.526155E1,8.781595E1,5.1431746E0,9.584852E1,1.21103E2,5.168004E1,2.9846418E1,3.3140256E2,4.530158E1,1.6667552E2,1.3160448E2,2.9145824E1,6.639651E1,8.3230156E1],"tree_param":{"num_deleted":"0","num_feature":"34","num_nodes":"39","size_leaf_vector":"0"}},{"base_weights":[-2.446949E-6,6.781628E-1,-4.1406006E-1,4.717619E-1,9.6141094E-1,-3.1935287E-1,-1.2803701E0,-8.75356E-2,5.975398E-1,1.0824968E0,7.268711E-1,-1.02434374E-1,-7.2454363E-1,-3.1876364E-1,1.2141116E0,9.876612E-1,3.7530202E-1,9.0168655E-1,1.1542213E0,6.728167E-2,9.587415E-1,-3.8331532E-1,3.731117E-1,-1.1338108E0,-2.9469422E-1,-7.158868E-1,7.9834926E-1,5.547117E-1,1.4204662E0,1.2008986E0,5.1627463E-1,4.32713E-1,-1.8043745E0,2.6053983E-1,1.1140946E0,9.070149E-1,1.1971459E0,5.0671506E-1,-1.6583877E0,1.1186222E0,5.3794605E-1,-7.1357137E-1,-1.13033116E-1,-5.226505E-1,6.1854756E-1,-1.1909503E0,8.036568E-1,-9.3685687E-1,2.0334145E-1],"categories":[],"categories_nodes":[],"categories_segments":[],"categories_sizes":[],"default_left":[1,1,1,1,1,1,0,1,1,1,1,1,1,1,1,1,1,1,1,1,1,1,1,1,1,0,0,0,0,0,0,0,0,0,0,0,0,0,0,0,0,0,0,0,0,0,0,0,0],"id":9,"left_children":[1,3,5,7,9,11,-1,13,15,17,19,21,23,25,27,29,31,33,35,37,39,41,43,45,47,-1,-1,-1,-1,-1,-1,-1,-1,-1,-1,-1,-1,-1,-1,-1,-1,-1,-1,-1,-1,-1,-1,-1,-1],"loss_changes":[4.3445374E2,3.3837067E1,7.840953E1,2.4058975E1,6.2073517E0,7.6157814E1,0E0,1.950705E1,2.379541E1,1.0391388E0,1.3225723E1,7.575377E1,5.283969E1,2.4854061E1,5.442705E-1,9.486519E0,2.3203886E1,6.5355263E0,9.477234E-2,1.8795753E1,3.71883E0,3.1729362E1,4.6646675E1,1.8059372E1,4.7770798E1,0E0,0E0,0E0,0E0,0E0,0E0,0E0,0E0,0E0,0E0,0E0,0E0,0E0,0E0,0E0,0E0,0E0,0E0,0E0,0E0,0E0,0E0,0E0,0E0],"parents":[2147483647,0,0,1,1,2,2,3,3,4,4,5,5,7,7,8,8,9,9,10,10,11,11,12,12,13,13,14,14,15,15,16,16,17,17,18,18,19,19,20,20,21,21,22,22,23,23,24,24],"right_children":[2,4,6,8,10,12,-1,14,16,18,20,22,24,26,28,30,32,34,36,38,40,42,44,46,48,-1,-1,-1,-1,-1,-1,-1,-1,-1,-1,-1,-1,-1,-1,-1,-1,-1,-1,-1,-1,-1,-1,-1,-1],"split_conditions":[-1.0337988E0,4.894395E-1,1.3619359E0,-4.098464E-1,-7.0780545E-2,2.8388137E-1,-1.2803702E-1,-2.7200855E-2,-4.6170515E-1,-4.098464E-1,-3.7932295E-1,4.894395E-1,4.0982985E-1,5.0788945E-1,5.7507694E-1,1.8422091E-1,2.0349646E0,-1.9639924E-1,3.9371157E-1,2.8417897E-1,-2.689856E-1,-2.5860858E-1,-4.098464E-1,7.437116E-1,-2.719074E-1,-7.158868E-2,7.983493E-2,5.547117E-2,1.4204662E-1,1.20089866E-1,5.1627465E-2,4.32713E-2,-1.8043745E-1,2.6053984E-2,1.1140946E-1,9.070149E-2,1.19714595E-1,5.0671507E-2,-1.6583876E-1,1.1186222E-1,5.3794604E-2,-7.135714E-2,-1.1303312E-2,-5.2265048E-2,6.1854757E-2,-1.1909503E-1,8.036568E-2,-9.368569E-2,2.0334145E-2],"split_indices":[0,6,0,4,27,24,0,11,17,4,1,6,33,5,10,19,1,22,28,15,10,1,4,11,5,0,0,0,0,0,0,0,0,0,0,0,0,0,0,0,0,0,0,0,0,0,0,0,0],"split_type":[0,0,0,0,0,0,0,0,0,0,0,0,0,0,0,0,0,0,0,0,0,0,0,0,0,0,0,0,0,0,0,0,0,0,0,0,0,0,0,0,0,0,0,0,0,0,0,0,0],"sum_hessian":[1.5452026E3,5.8553876E2,9.5966394E2,3.4025958E2,2.4527919E2,8.6632385E2,9.334005E1,6.25265E1,2.777331E2,1.5938046E2,8.5898735E1,5.6506805E2,3.0125583E2,5.3735832E1,8.7906685E0,9.954509E1,1.7818799E2,4.912156E1,1.1025891E2,2.2678E1,6.322073E1,3.5536554E2,2.0970248E2,1.5348367E2,1.4777217E2,3.990806E1,1.3827776E1,2.9743555E0,5.816313E0,6.747456E1,3.2070526E1,1.7439601E2,3.7919767E0,1.27780485E1,3.634351E1,1.9586895E1,9.067201E1,1.8638231E1,4.0397696E0,4.4612072E1,1.8608658E1,1.5920003E2,1.9616553E2,4.4857502E1,1.6484497E2,1.4946109E2,4.022575E0,6.4161644E1,8.3610535E1],"tree_param":{"num_deleted":"0","num_feature":"34","num_nodes":"49","size_leaf_vector":"0"}},{"base_weights":[1.7599633E-4,6.343553E-1,-3.830665E-1,4.3534783E-1,9.159589E-1,1.5121429E-1,-5.3343743E-1,2.4578106E-1,7.9646915E-1,7.907386E-1,1.1746728E0,4.2406082E-1,-7.80649E-1,-7.1031874E-1,-1.2215971E-1,7.804935E-1,-7.2571285E-2,-5.8840656E-1,8.795569E-1,9.840128E-1,3.6224645E-1,7.3940367E-1,-4.8916826E-1,-1.2585438E0,5.4415606E-2,-8.200526E-1,-6.556164E-2,3.6792625E-2,-1.2237853E0,-1.1720138E0,8.2359654E-1,5.002824E-1,-5.207656E-1,1.1663578E0,-1.715759E0,9.2044437E-1,-1.1304338E0,-1.836538E-2,1.0355318E0,7.3066866E-1,-5.2870387E-1,-8.989135E-1,8.687441E-1,-1.1483194E0,9.8954594E-1,-2.6176825E-1,-1.3479096E0,8.361616E-1,-1.330682E0,-1.1270974E0,-5.672199E-1,-5.065792E-1,1.0237674E0,3.317299E-1,-4.9496222E-1],"categories":[],"categories_nodes":[],"categories_segments":[],"categories_sizes":[],"default_left":[1,1,1,1,1,1,1,1,1,1,0,1,1,1,1,1,1,1,1,1,1,1,1,1,1,1,1,1,0,0,0,0,0,0,0,0,0,0,0,0,0,0,0,0,0,0,0,0,0,0,0,0,0,0,0],"id":10,"left_children":[1,3,5,7,9,11,13,15,17,19,-1,21,23,25,27,29,31,33,35,37,39,41,43,45,47,49,51,53,-1,-1,-1,-1,-1,-1,-1,-1,-1,-1,-1,-1,-1,-1,-1,-1,-1,-1,-1,-1,-1,-1,-1,-1,-1,-1,-1],"loss_changes":[3.657975E2,3.1372528E1,7.545085E1,2.2674538E1,6.6467896E0,5.2917038E1,5.3187073E1,3.759627E1,1.3699265E1,1.2946724E1,0E0,4.661976E1,1.8902338E1,3.616205E1,3.882077E1,7.898525E0,3.5985767E1,1.6013472E1,9.955307E0,5.7057343E0,1.7296013E1,2.6166206E1,4.1909073E1,2.324627E0,2.0750624E1,3.3311646E1,3.6806168E1,3.0666868E1,0E0,0E0,0E0,0E0,0E0,0E0,0E0,0E0,0E0,0E0,0E0,0E0,0E0,0E0,0E0,0E0,0E0,0E0,0E0,0E0,0E0,0E0,0E0,0E0,0E0,0E0,0E0],"parents":[2147483647,0,0,1,1,2,2,3,3,4,4,5,5,6,6,7,7,8,8,9,9,11,11,12,12,13,13,14,14,15,15,16,16,17,17,18,18,19,19,20,20,21,21,22,22,23,23,24,24,25,25,26,26,27,27],"right_children":[2,4,6,8,10,12,14,16,18,20,-1,22,24,26,28,30,32,34,36,38,40,42,44,46,48,50,52,54,-1,-1,-1,-1,-1,-1,-1,-1,-1,-1,-1,-1,-1,-1,-1,-1,-1,-1,-1,-1,-1,-1,-1,-1,-1,-1,-1],"split_conditions":[-1.0337988E0,4.894395E-1,-8.3169395E-1,-2.719074E-1,-2.719074E-1,4.0145916E-1,5.0788945E-1,-8.3169395E-1,-1.1614025E0,3.5957563E-1,1.17467284E-1,-1.9107959E-1,2.2579151E-1,1.2188175E0,1.3619359E0,-1.3591104E0,-3.6429042E-1,-4.6170515E-1,8.816613E-1,-8.621805E-1,-7.760226E-2,-3.7300473E-1,1.5521071E0,-1.1779168E0,-2.660653E-1,-2.5860858E-1,9.1479266E-1,2.8388137E-1,-1.2237853E-1,-1.1720138E-1,8.235966E-2,5.0028242E-2,-5.207656E-2,1.1663578E-1,-1.715759E-1,9.2044435E-2,-1.1304338E-1,-1.836538E-3,1.03553176E-1,7.306687E-2,-5.287039E-2,-8.989135E-2,8.687441E-2,-1.1483194E-1,9.8954596E-2,-2.6176825E-2,-1.3479096E-1,8.361616E-2,-1.330682E-1,-1.1270974E-1,-5.6721993E-2,-5.0657924E-2,1.0237674E-1,3.317299E-2,-4.9496222E-2],"split_indices":[0,6,10,5,5,18,5,10,3,29,0,11,14,20,0,11,15,17,13,1,15,15,1,11,12,1,9,24,0,0,0,0,0,0,0,0,0,0,0,0,0,0,0,0,0,0,0,0,0,0,0,0,0,0,0],"split_type":[0,0,0,0,0,0,0,0,0,0,0,0,0,0,0,0,0,0,0,0,0,0,0,0,0,0,0,0,0,0,0,0,0,0,0,0,0,0,0,0,0,0,0,0,0,0,0,0,0,0,0,0,0,0,0],"sum_hessian":[1.5030643E3,5.6592755E2,9.371368E2,3.330847E2,2.3284288E2,2.0582329E2,7.313135E2,2.1952696E2,1.1355771E2,1.596345E2,7.3208374E1,1.5962929E2,4.6194004E1,5.108719E2,2.2044162E2,8.138278E1,1.3814418E2,6.0832143E0,1.07474495E2,1.0911914E2,5.0515366E1,1.1879804E2,4.0831253E1,2.9057636E1,1.7136366E1,4.3633783E2,7.4534035E1,1.9348979E2,2.6951828E1,1.1920856E0,8.01907E1,6.058809E1,7.755609E1,2.365942E0,3.717272E0,1.0586308E2,1.6114144E0,5.36567E0,1.0375347E2,3.586466E1,1.4650708E1,8.257152E0,1.10540886E2,2.8396618E1,1.2434633E1,2.7140963E0,2.634354E1,1.1207304E1,5.929062E0,1.9548245E2,2.4085538E2,5.34355E1,2.1098534E1,1.2470079E2,6.8789E1],"tree_param":{"num_deleted":"0","num_feature":"34","num_nodes":"55","size_leaf_vector":"0"}},{"base_weights":[-4.6850324E-5,5.936166E-1,-3.5321802E-1,4.0156084E-1,8.739375E-1,-2.6675358E-1,-1.2221031E0,-1.1594302E-1,5.20962E-1,7.474959E-1,1.1425972E0,-7.34755E-2,-6.3980204E-1,-3.3774528E-1,1.145536E0,9.059157E-1,3.086947E-1,9.4214296E-1,3.330647E-1,7.727164E-1,1.1814003E0,-3.302631E-1,3.562667E-1,-1.0427206E0,-2.3840442E-1,3.5515857E-1,-9.001887E-1,4.9684694E-1,1.3543059E0,1.1349305E0,4.3610907E-1,-3.354887E-2,7.1587956E-1,9.736918E-1,-6.1180866E-1,6.816779E-1,-4.7128007E-1,1.0683323E0,-6.6710943E-1,9.5020466E-2,-5.3154355E-1,-4.6244222E-1,5.7755566E-1,-1.2220755E0,-3.0961257E-1,7.4939705E-2,-1.1479303E0],"categories":[],"categories_nodes":[],"categories_segments":[],"categories_sizes":[],"default_left":[1,1,1,1,1,1,0,1,1,1,1,1,1,1,1,1,1,1,1,1,0,1,1,1,1,0,0,0,0,0,0,0,0,0,0,0,0,0,0,0,0,0,0,0,0,0,0],"id":11,"left_children":[1,3,5,7,9,11,-1,13,15,17,19,21,23,25,27,29,31,33,35,37,-1,39,41,43,45,-1,-1,-1,-1,-1,-1,-1,-1,-1,-1,-1,-1,-1,-1,-1,-1,-1,-1,-1,-1,-1,-1],"loss_changes":[3.0757397E2,2.9108063E1,6.877589E1,2.023904E1,6.6743164E0,6.036201E1,0E0,1.7745453E1,2.141726E1,1.207592E1,7.790375E-2,6.1144707E1,4.597509E1,2.1183186E1,6.143141E-1,9.603439E0,2.4086412E1,5.692337E0,1.4518267E1,4.73286E0,0E0,2.9727482E1,3.7829453E1,1.833699E1,4.1259186E1,0E0,0E0,0E0,0E0,0E0,0E0,0E0,0E0,0E0,0E0,0E0,0E0,0E0,0E0,0E0,0E0,0E0,0E0,0E0,0E0,0E0,0E0],"parents":[2147483647,0,0,1,1,2,2,3,3,4,4,5,5,7,7,8,8,9,9,10,10,11,11,12,12,13,13,14,14,15,15,16,16,17,17,18,18,19,19,21,21,22,22,23,23,24,24],"right_children":[2,4,6,8,10,12,-1,14,16,18,20,22,24,26,28,30,32,34,36,38,-1,40,42,44,46,-1,-1,-1,-1,-1,-1,-1,-1,-1,-1,-1,-1,-1,-1,-1,-1,-1,-1,-1,-1,-1,-1],"split_conditions":[-1.0337988E0,4.894395E-1,1.3619359E0,-4.098464E-1,-2.719074E-1,2.8388137E-1,-1.2221032E-1,-2.7200855E-2,-4.6170515E-1,3.5957563E-1,-6.5692955E-1,4.894395E-1,4.0982985E-1,-8.3169395E-1,5.7507694E-1,-7.0780545E-2,1.0351229E0,4.9916664E-1,-7.760226E-2,7.8415096E-1,1.18140034E-1,-4.098464E-1,-4.098464E-1,1.3106782E0,5.7507694E-1,3.5515856E-2,-9.001887E-2,4.9684696E-2,1.3543059E-1,1.1349305E-1,4.3610908E-2,-3.354887E-3,7.158796E-2,9.736919E-2,-6.1180867E-2,6.816779E-2,-4.7128007E-2,1.06833234E-1,-6.671094E-2,9.502047E-3,-5.3154357E-2,-4.6244223E-2,5.7755567E-2,-1.22207545E-1,-3.0961258E-2,7.4939705E-3,-1.14793025E-1],"split_indices":[0,6,0,4,5,24,0,11,17,29,8,6,33,10,10,27,4,11,15,7,0,4,4,1,10,0,0,0,0,0,0,0,0,0,0,0,0,0,0,0,0,0,0,0,0,0,0],"split_type":[0,0,0,0,0,0,0,0,0,0,0,0,0,0,0,0,0,0,0,0,0,0,0,0,0,0,0,0,0,0,0,0,0,0,0,0,0,0,0,0,0,0,0,0,0,0,0],"sum_hessian":[1.4649794E3,5.461863E2,9.1879315E2,3.25565E2,2.2062125E2,8.3682605E2,8.196714E1,6.1039394E1,2.645256E2,1.5258922E2,6.803203E1,5.520193E2,2.8480673E2,5.253464E1,8.504754E0,9.285757E1,1.7166805E2,1.02958885E2,4.963032E1,8.445092E0,5.9586937E1,3.4568854E2,2.0633078E2,1.4133675E2,1.4346999E2,2.370264E1,2.8831999E1,2.893612E0,5.611142E0,6.1474895E1,3.1382671E1,9.3770485E1,7.789757E1,1.0127615E2,1.682735E0,3.4730286E1,1.4900038E1,7.220614E0,1.224478E0,1.1122024E2,2.3446829E2,4.3670822E1,1.6265996E2,1.1301953E2,2.8317217E1,1.0739019E2,3.6079792E1],"tree_param":{"num_deleted":"0","num_feature":"34","num_nodes":"47","size_leaf_vector":"0"}},{"base_weights":[3.9832783E-5,5.549653E-1,-3.266962E-1,3.702375E-1,8.3432525E-1,-2.4534363E-1,-1.194303E0,2.1987575E-1,8.06871E-1,6.265148E-1,1.0088089E0,2.4602653E-1,-3.9153022E-1,6.373648E-1,-1.15003595E-2,9.210095E-1,1.2600721E-1,3.525788E-1,1.0603456E0,1.1454796E0,7.484755E-1,4.853586E-1,-6.6419774E-1,-5.8170605E-1,5.661185E-2,-1.0669348E0,6.927203E-1,-1.3995434E-1,1.2582507E0,-2.5399897E-1,1.0105915E0,-2.0012164E0,5.6006986E-1,-1.8388462E0,4.9079958E-1,1.1589776E0,4.1118312E-1,8.4803265E-1,1.1973345E0,-7.225681E-2,9.393762E-1,2.3100376E-1,1.5059688E0,-1.1903104E0,1.6446076E-1,-2.8690657E-1,-8.3106977E-1,3.859595E-1,-3.2702687E-1],"categories":[],"categories_nodes":[],"categories_segments":[],"categories_sizes":[],"default_left":[1,1,1,1,1,1,0,1,1,1,1,1,1,1,1,1,1,1,1,1,1,1,1,1,1,0,0,0,0,0,0,0,0,0,0,0,0,0,0,0,0,0,0,0,0,0,0,0,0],"id":12,"left_children":[1,3,5,7,9,11,-1,13,15,17,19,21,23,25,27,29,31,33,35,37,39,41,43,45,47,-1,-1,-1,-1,-1,-1,-1,-1,-1,-1,-1,-1,-1,-1,-1,-1,-1,-1,-1,-1,-1,-1,-1,-1],"loss_changes":[2.590262E2,2.7012543E1,6.317269E1,2.0863697E1,6.98024E0,5.923899E1,0E0,2.3168327E1,6.2346764E0,1.1326992E1,3.144722E0,4.1582733E1,5.414691E1,8.806881E0,2.5498621E1,7.6068954E0,1.3023807E1,1.963638E1,1.9314842E0,9.320831E-2,6.586876E0,3.8733658E1,1.7571127E1,3.2538147E1,2.414334E1,0E0,0E0,0E0,0E0,0E0,0E0,0E0,0E0,0E0,0E0,0E0,0E0,0E0,0E0,0E0,0E0,0E0,0E0,0E0,0E0,0E0,0E0,0E0,0E0],"parents":[2147483647,0,0,1,1,2,2,3,3,4,4,5,5,7,7,8,8,9,9,10,10,11,11,12,12,13,13,14,14,15,15,16,16,17,17,18,18,19,19,20,20,21,21,22,22,23,23,24,24],"right_children":[2,4,6,8,10,12,-1,14,16,18,20,22,24,26,28,30,32,34,36,38,40,42,44,46,48,-1,-1,-1,-1,-1,-1,-1,-1,-1,-1,-1,-1,-1,-1,-1,-1,-1,-1,-1,-1,-1,-1,-1,-1],"split_conditions":[-1.0337988E0,4.894395E-1,1.3619359E0,5.0788945E-1,3.9371157E-1,-8.3169395E-1,-1.194303E-1,-8.3169395E-1,7.8415096E-1,-2.719074E-1,1.8422091E-1,4.0145916E-1,5.0788945E-1,-5.019497E-1,1.1377853E0,-1.1614025E0,-5.5033976E-1,-8.621805E-1,7.8415096E-1,-7.4146605E-1,-6.0808176E-1,1.4313927E0,2.2579151E-1,-7.0780545E-2,-3.296352E-1,-1.06693484E-1,6.9272034E-2,-1.3995434E-2,1.2582508E-1,-2.5399897E-2,1.0105915E-1,-2.0012164E-1,5.6006987E-2,-1.8388462E-1,4.907996E-2,1.1589777E-1,4.1118313E-2,8.480327E-2,1.1973345E-1,-7.225681E-3,9.393762E-2,2.3100376E-2,1.5059689E-1,-1.19031034E-1,1.6446076E-2,-2.8690657E-2,-8.310698E-2,3.8595952E-2,-3.2702688E-2],"split_indices":[0,6,0,5,28,10,0,10,7,5,19,18,5,15,10,3,10,1,7,1,7,1,14,27,7,0,0,0,0,0,0,0,0,0,0,0,0,0,0,0,0,0,0,0,0,0,0,0,0],"split_type":[0,0,0,0,0,0,0,0,0,0,0,0,0,0,0,0,0,0,0,0,0,0,0,0,0,0,0,0,0,0,0,0,0,0,0,0,0,0,0,0,0,0,0,0,0,0,0,0,0],"sum_hessian":[1.4266047E3,5.2842834E2,8.981764E2,3.1948984E2,2.0893852E2,8.2235016E2,7.582622E1,2.3876933E2,8.072049E1,9.745729E1,1.11481224E2,1.8840163E2,6.3394855E2,8.451607E1,1.5425327E2,6.882938E1,1.1891111E1,6.084827E1,3.6609016E1,7.087369E1,4.0607536E1,1.495469E2,3.8854713E1,4.4486523E2,1.8908328E2,2.0838473E0,8.243222E1,1.4088995E2,1.3363312E1,4.74577E0,6.40836E1,1.4033314E0,1.0487781E1,2.8802109E0,5.796806E1,3.1098633E1,5.510384E0,1.3097671E1,5.777602E1,7.780145E0,3.2827393E1,1.2069407E2,2.885284E1,2.3498905E1,1.5355808E1,2.0484578E2,2.4001947E2,1.0173736E2,8.7345924E1],"tree_param":{"num_deleted":"0","num_feature":"34","num_nodes":"49","size_leaf_vector":"0"}},{"base_weights":[2.5651633E-4,5.182788E-1,-3.004283E-1,2.9151493E-1,7.3780644E-1,-2.2414114E-1,-1.169941E0,3.2135174E-2,7.202014E-1,4.9319553E-1,9.7177917E-1,-4.560853E-2,-5.77934E-1,7.86335E-1,-3.3626395E-1,7.6397735E-1,-1.5962428E0,6.679072E-1,-4.9035197E-1,1.08441E0,6.7256784E-1,-2.7808684E-1,3.395481E-1,-9.743788E-1,-2.0204113E-1,8.572566E-1,-4.5318154E-1,-7.349591E-1,2.777892E-1,-3.8023135E-1,8.356645E-1,8.1725544E-1,1.1822123E-1,-1.2971635E0,5.768915E-1,1.1102494E0,-5.9888728E-2,-1.5834972E0,9.907815E-1,1.1305526E0,-3.3606023E-1,-4.021002E-1,5.387273E-1,-1.1592963E0,-1.7434402E-1,-7.972227E-1,2.2304262E-1],"categories":[],"categories_nodes":[],"categories_segments":[],"categories_sizes":[],"default_left":[1,1,1,1,1,1,0,1,1,1,1,1,1,1,1,1,0,1,1,1,1,1,1,1,1,0,0,0,0,0,0,0,0,0,0,0,0,0,0,0,0,0,0,0,0,0,0],"id":13,"left_children":[1,3,5,7,9,11,-1,13,15,17,19,21,23,25,27,29,-1,31,33,35,37,39,41,43,45,-1,-1,-1,-1,-1,-1,-1,-1,-1,-1,-1,-1,-1,-1,-1,-1,-1,-1,-1,-1,-1,-1],"loss_changes":[2.1737164E2,2.529953E1,5.8309822E1,2.8193855E1,1.43880005E1,5.1326874E1,0E0,4.4484055E1,1.0915344E1,2.249945E1,3.7104187E0,4.8574627E1,4.042424E1,5.006115E0,2.6552591E1,8.070637E0,0E0,8.93293E0,1.8003473E1,2.848259E0,2.9324718E1,2.79975E1,3.0388021E1,1.938594E1,3.5897087E1,0E0,0E0,0E0,0E0,0E0,0E0,0E0,0E0,0E0,0E0,0E0,0E0,0E0,0E0,0E0,0E0,0E0,0E0,0E0,0E0,0E0,0E0],"parents":[2147483647,0,0,1,1,2,2,3,3,4,4,5,5,7,7,8,8,9,9,10,10,11,11,12,12,13,13,14,14,15,15,17,17,18,18,19,19,20,20,21,21,22,22,23,23,24,24],"right_children":[2,4,6,8,10,12,-1,14,16,18,20,22,24,26,28,30,-1,32,34,36,38,40,42,44,46,-1,-1,-1,-1,-1,-1,-1,-1,-1,-1,-1,-1,-1,-1,-1,-1,-1,-1,-1,-1,-1,-1],"split_conditions":[-1.0337988E0,3.9371157E-1,1.3619359E0,-2.719074E-1,3.1263822E-1,2.8388137E-1,-1.169941E-1,-8.3169395E-1,2.155679E0,2.9500383E-1,4.0145916E-1,4.894395E-1,4.0982985E-1,1.6194906E0,4.0982985E-1,-1.1614025E0,-1.5962428E-1,4.0145916E-1,4.894395E-1,1.6282938E0,-5.000373E-1,-1.7978313E0,-4.098464E-1,1.0625975E0,-2.719074E-1,8.572566E-2,-4.5318153E-2,-7.349592E-2,2.7778922E-2,-3.8023137E-2,8.356645E-2,8.1725545E-2,1.1822123E-2,-1.2971635E-1,5.768915E-2,1.1102494E-1,-5.988873E-3,-1.5834972E-1,9.907815E-2,1.1305527E-1,-3.3606023E-2,-4.021002E-2,5.387273E-2,-1.15929626E-1,-1.7434401E-2,-7.972227E-2,2.2304263E-2],"split_indices":[0,28,0,5,4,24,0,10,1,15,18,6,33,7,33,3,0,18,6,21,1,15,4,7,5,0,0,0,0,0,0,0,0,0,0,0,0,0,0,0,0,0,0,0,0,0,0],"split_type":[0,0,0,0,0,0,0,0,0,0,0,0,0,0,0,0,0,0,0,0,0,0,0,0,0,0,0,0,0,0,0,0,0,0,0,0,0,0,0,0,0,0,0,0,0,0,0],"sum_hessian":[1.3935426E3,5.1153766E2,8.820049E2,2.5276689E2,2.5877078E2,8.120197E2,6.998521E1,1.5815129E2,9.461559E1,1.2802878E2,1.3074199E2,5.4043286E2,2.7158682E2,5.152763E1,1.06623665E2,9.3518486E1,1.0971093E0,1.0898945E2,1.903933E1,9.3080055E1,3.7661938E1,3.3718686E2,2.0324603E2,1.3140504E2,1.4018178E2,4.9030632E1,2.496999E0,6.452905E1,4.2094612E1,5.259936E0,8.8258545E1,8.5321144E1,2.3668304E1,1.0719899E1,8.31943E0,9.105373E1,2.0263321E0,4.1639857E0,3.349795E1,1.2597247E1,3.245896E2,4.281279E1,1.6043324E2,1.0636997E2,2.503507E1,5.8040646E1,8.214113E1],"tree_param":{"num_deleted":"0","num_feature":"34","num_nodes":"47","size_leaf_vector":"0"}},{"base_weights":[8.304079E-5,4.832035E-1,-2.7794197E-1,3.040013E-1,7.6690966E-1,3.9146486E-1,-3.7278947E-1,1.576438E-1,6.9428134E-1,6.3681763E-1,1.0691942E0,5.830575E-1,-1.8609999E-1,-2.9902035E-1,-1.1483265E0,3.138215E-1,-4.7825417E-1,7.4298924E-1,-1.1073853E0,8.5202825E-1,2.1116309E-1,6.512554E-1,1.1157885E0,-1.0595784E0,6.3990164E-1,4.0953234E-1,-1.1302791E0,-5.2044296E-1,-6.4382935E-3,1.5932164E-1,1.2778078E0,-1.1424273E0,4.8790962E-1,8.54483E-1,2.105115E-2,-1.3557683E-1,9.1060483E-1,5.656945E-1,-5.613213E-1,9.901535E-1,-7.12406E-1,-1.01790965E-1,7.6743037E-1,-1.0111036E0,7.8024894E-1,-1.4883031E0,4.8491737E-1,-6.6935736E-1,3.08815E-1,4.849212E-1,-3.187135E-1],"categories":[],"categories_nodes":[],"categories_segments":[],"categories_sizes":[],"default_left":[1,1,1,1,1,1,1,1,1,1,1,1,1,1,0,1,1,1,0,1,1,1,0,0,1,1,1,1,1,0,0,0,0,0,0,0,0,0,0,0,0,0,0,0,0,0,0,0,0,0,0],"id":14,"left_children":[1,3,5,7,9,11,13,15,17,19,21,23,25,27,-1,29,31,33,-1,35,37,39,-1,-1,41,43,45,47,49,-1,-1,-1,-1,-1,-1,-1,-1,-1,-1,-1,-1,-1,-1,-1,-1,-1,-1,-1,-1,-1,-1],"loss_changes":[1.8256898E2,2.5008408E1,5.492208E1,1.7365952E1,6.851486E0,1.2010431E1,4.2917908E1,2.2375788E1,8.119225E0,1.23136635E1,3.6693573E-1,8.2419815E0,1.5956442E1,4.481744E1,0E0,2.6645273E1,2.9127743E1,6.54652E0,0E0,5.344795E0,1.3224823E1,4.418607E0,0E0,0E0,7.5430183E0,1.0072221E1,7.038143E0,4.883658E1,4.6039955E1,0E0,0E0,0E0,0E0,0E0,0E0,0E0,0E0,0E0,0E0,0E0,0E0,0E0,0E0,0E0,0E0,0E0,0E0,0E0,0E0,0E0,0E0],"parents":[2147483647,0,0,1,1,2,2,3,3,4,4,5,5,6,6,7,7,8,8,9,9,10,10,11,11,12,12,13,13,15,15,16,16,17,17,19,19,20,20,21,21,24,24,25,25,26,26,27,27,28,28],"right_children":[2,4,6,8,10,12,14,16,18,20,22,24,26,28,-1,30,32,34,-1,36,38,40,-1,-1,42,44,46,48,50,-1,-1,-1,-1,-1,-1,-1,-1,-1,-1,-1,-1,-1,-1,-1,-1,-1,-1,-1,-1,-1,-1],"split_conditions":[-1.0337988E0,4.894395E-1,-1.0947043E0,1.1799102E-1,-2.719074E-1,4.0145916E-1,1.3619359E0,2.8388137E-1,8.816613E-1,3.5957563E-1,-6.5692955E-1,-4.348652E-1,1.1087936E-1,1.1799102E-1,-1.14832655E-1,1.2188175E0,1.0351229E0,7.8415096E-1,-1.1073853E-1,-8.621805E-1,-7.760226E-2,7.8415096E-1,1.11578844E-1,-1.0595784E-1,-6.7439836E-1,-6.769173E-1,2.2180731E0,1.5521071E0,-2.5701213E-1,1.5932163E-2,1.2778078E-1,-1.1424273E-1,4.879096E-2,8.54483E-2,2.105115E-3,-1.3557683E-2,9.106048E-2,5.6569453E-2,-5.6132134E-2,9.901535E-2,-7.12406E-2,-1.0179097E-2,7.674304E-2,-1.0111036E-1,7.8024894E-2,-1.4883031E-1,4.849174E-2,-6.693574E-2,3.08815E-2,4.849212E-2,-3.187135E-2],"split_indices":[0,6,11,5,5,18,0,24,13,29,8,0,15,5,0,20,4,7,0,1,15,7,0,0,15,15,32,1,15,0,0,0,0,0,0,0,0,0,0,0,0,0,0,0,0,0,0,0,0,0,0],"split_type":[0,0,0,0,0,0,0,0,0,0,0,0,0,0,0,0,0,0,0,0,0,0,0,0,0,0,0,0,0,0,0,0,0,0,0,0,0,0,0,0,0,0,0,0,0,0,0,0,0,0,0],"sum_hessian":[1.3572136E3,4.954824E2,8.6173126E2,3.0493964E2,1.9054274E2,1.0655673E2,7.5517456E2,2.2279428E2,8.2145355E1,1.3538483E2,5.5157913E1,8.000693E1,2.6549803E1,6.9084674E2,6.432782E1,1.792714E2,4.3522892E1,8.055517E1,1.5901923E0,8.9255585E1,4.6129246E1,7.0347896E0,4.8123123E1,2.0860417E0,7.792088E1,1.6626982E1,9.922822E0,3.9280093E2,2.980458E2,1.555124E2,2.3758987E1,2.568425E1,1.7838644E1,6.961973E1,1.0935434E1,4.923893E0,8.433169E1,3.1801605E1,1.432764E1,5.85388E0,1.1809096E0,1.146186E1,6.645902E1,3.0834303E0,1.35435505E1,8.186719E0,1.7361035E0,3.331654E2,5.963553E1,1.1559937E2,1.8244643E2],"tree_param":{"num_deleted":"0","num_feature":"34","num_nodes":"51","size_leaf_vector":"0"}},{"base_weights":[1.3476722E-4,4.507772E-1,-2.559513E-1,2.2748125E-1,6.7088366E-1,-1.8876356E-1,-1.1293449E0,-3.0736108E-3,6.3372177E-1,4.3506464E-1,9.0316767E-1,2.4253905E-1,-3.1956983E-1,3.3090982E-1,-7.453151E-1,6.79468E-1,-1.5115508E0,5.978086E-1,-4.5031103E-1,1.0208294E0,6.0137284E-1,4.53269E-1,-5.9458685E-1,-5.2836037E-1,7.820422E-2,-2.696914E-1,5.3222173E-1,-1.1008392E-1,-2.1069272E0,-4.003991E-1,7.54436E-1,7.4317235E-1,9.324055E-2,-1.1515635E0,5.2298135E-1,1.0481782E0,-1.0003723E-1,-1.4633982E0,9.219799E-1,7.0515376E-1,-3.9208567E-1,-1.1135643E0,1.665858E-1,1.7607525E-1,-6.4934283E-1,5.2950215E-1,-3.5902005E-1],"categories":[],"categories_nodes":[],"categories_segments":[],"categories_sizes":[],"default_left":[1,1,1,1,1,1,0,1,1,1,1,1,1,1,1,1,0,1,1,1,1,1,1,1,1,0,0,0,0,0,0,0,0,0,0,0,0,0,0,0,0,0,0,0,0,0,0],"id":15,"left_children":[1,3,5,7,9,11,-1,13,15,17,19,21,23,25,27,29,-1,31,33,35,37,39,41,43,45,-1,-1,-1,-1,-1,-1,-1,-1,-1,-1,-1,-1,-1,-1,-1,-1,-1,-1,-1,-1,-1,-1],"loss_changes":[1.5325279E2,2.3497719E1,4.9476936E1,2.2516224E1,1.2853043E1,4.450554E1,0E0,3.8508244E1,9.568607E0,1.7837265E1,3.6789398E0,3.2697258E1,5.026001E1,1.3097639E1,4.1462593E1,7.2568474E0,0E0,7.5163383E0,1.39127445E1,2.7272415E0,2.5408949E1,3.166745E1,1.4959854E1,3.3919434E1,4.1431477E1,0E0,0E0,0E0,0E0,0E0,0E0,0E0,0E0,0E0,0E0,0E0,0E0,0E0,0E0,0E0,0E0,0E0,0E0,0E0,0E0,0E0,0E0],"parents":[2147483647,0,0,1,1,2,2,3,3,4,4,5,5,7,7,8,8,9,9,10,10,11,11,12,12,13,13,14,14,15,15,17,17,18,18,19,19,20,20,21,21,22,22,23,23,24,24],"right_children":[2,4,6,8,10,12,-1,14,16,18,20,22,24,26,28,30,-1,32,34,36,38,40,42,44,46,-1,-1,-1,-1,-1,-1,-1,-1,-1,-1,-1,-1,-1,-1,-1,-1,-1,-1,-1,-1,-1,-1],"split_conditions":[-1.0337988E0,3.9371157E-1,1.3619359E0,-2.719074E-1,3.1263822E-1,-8.3169395E-1,-1.1293449E-1,3.5957563E-1,2.155679E0,2.9500383E-1,4.0145916E-1,4.0145916E-1,3.031029E-1,-3.7932295E-1,-7.760226E-2,-1.1614025E0,-1.5115508E-1,4.0145916E-1,4.894395E-1,1.6282938E0,-5.000373E-1,-1.9107959E-1,2.2579151E-1,-1.0844173E0,2.7927718E-1,-2.696914E-2,5.3222176E-2,-1.1008392E-2,-2.1069272E-1,-4.003991E-2,7.54436E-2,7.431724E-2,9.324055E-3,-1.1515635E-1,5.2298136E-2,1.0481782E-1,-1.0003723E-2,-1.4633982E-1,9.219799E-2,7.051538E-2,-3.920857E-2,-1.1135643E-1,1.665858E-2,1.7607525E-2,-6.493428E-2,5.2950215E-2,-3.5902005E-2],"split_indices":[0,28,0,5,4,10,0,29,1,15,18,18,11,1,15,3,0,18,6,21,1,11,14,11,15,0,0,0,0,0,0,0,0,0,0,0,0,0,0,0,0,0,0,0,0,0,0],"split_type":[0,0,0,0,0,0,0,0,0,0,0,0,0,0,0,0,0,0,0,0,0,0,0,0,0,0,0,0,0,0,0,0,0,0,0,0,0,0,0,0,0,0,0,0,0,0,0],"sum_hessian":[1.3259767E3,4.8019778E2,8.4577893E2,2.3938121E2,2.4081657E2,7.8649243E2,5.9286533E1,1.533452E2,8.603601E1,1.20924644E2,1.1989192E2,1.8282297E2,6.0366943E2,1.06139984E2,4.7205208E1,8.490867E1,1.1273388E0,1.0242277E2,1.8501883E1,8.454684E1,3.5345085E1,1.4642252E2,3.6400444E1,3.956602E2,2.0800928E2,2.6560064E1,7.957992E1,3.2925407E1,1.4279801E1,5.2301855E0,7.967849E1,7.9147766E1,2.3275002E1,1.0647353E1,7.8545303E0,8.259636E1,1.9504752E0,4.271479E0,3.1073606E1,1.1293721E2,3.348531E1,2.13683E1,1.5032144E1,5.7925602E1,3.377346E2,1.0225342E2,1.0575587E2],"tree_param":{"num_deleted":"0","num_feature":"34","num_nodes":"47","size_leaf_vector":"0"}},{"base_weights":[-2.3070906E-4,4.1955516E-1,-2.356693E-1,2.4587663E-1,7.085388E-1,-1.7281784E-1,-1.1122552E0,-2.2707783E-1,3.611177E-1,5.785947E-1,1.0295683E0,-3.302198E-1,1.585967E-1,-4.4148588E-1,1.0124948E0,7.766992E-1,1.4079323E-1,7.9276174E-1,1.791163E-1,1.0835952E0,5.8552325E-1,-5.96002E-1,1.7895687E-2,-1.8301128E-1,6.474679E-1,-1.5371646E0,-1.3284078E-1,4.9155018E-1,1.1737616E0,1.02266E0,2.8840578E-1,-1.6640706E-1,5.2532005E-1,8.3024365E-1,-6.5099525E-1,5.006555E-1,-4.8707202E-1,9.42855E-1,-5.2929735E-1,-7.57867E-1,2.051178E-1,4.375179E-1,-4.5908606E-1,-9.3746156E-1,2.8563315E-1,1.0222117E-1,1.1055727E0],"categories":[],"categories_nodes":[],"categories_segments":[],"categories_sizes":[],"default_left":[1,1,1,1,1,1,0,1,1,1,1,1,1,1,1,1,1,1,1,0,1,1,1,1,1,0,0,0,0,0,0,0,0,0,0,0,0,0,0,0,0,0,0,0,0,0,0],"id":16,"left_children":[1,3,5,7,9,11,-1,13,15,17,19,21,23,25,27,29,31,33,35,-1,37,39,41,43,45,-1,-1,-1,-1,-1,-1,-1,-1,-1,-1,-1,-1,-1,-1,-1,-1,-1,-1,-1,-1,-1,-1],"loss_changes":[1.282603E2,2.3229996E1,4.5615013E1,1.6040346E1,6.6844025E0,4.0584072E1,0E0,1.5856314E1,2.1482475E1,1.0681923E1,5.411148E-1,4.8780956E1,4.2014336E1,1.6747055E1,1.6681862E-1,9.491131E0,1.8436335E1,4.9815636E0,9.978704E0,0E0,3.4831598E0,3.8919273E1,4.607204E1,5.2757576E1,2.5717438E1,0E0,0E0,0E0,0E0,0E0,0E0,0E0,0E0,0E0,0E0,0E0,0E0,0E0,0E0,0E0,0E0,0E0,0E0,0E0,0E0,0E0,0E0],"parents":[2147483647,0,0,1,1,2,2,3,3,4,4,5,5,7,7,8,8,9,9,10,10,11,11,12,12,13,13,14,14,15,15,16,16,17,17,18,18,20,20,21,21,22,22,23,23,24,24],"right_children":[2,4,6,8,10,12,-1,14,16,18,20,22,24,26,28,30,32,34,36,-1,38,40,42,44,46,-1,-1,-1,-1,-1,-1,-1,-1,-1,-1,-1,-1,-1,-1,-1,-1,-1,-1,-1,-1,-1,-1],"split_conditions":[-1.0337988E0,4.894395E-1,1.3619359E0,-4.098464E-1,-2.719074E-1,3.9371157E-1,-1.1122552E-1,-2.7200855E-2,-4.6170515E-1,3.5957563E-1,4.3351418E-1,1.1799102E-1,4.0982985E-1,-5.019497E-1,5.7507694E-1,1.8422091E-1,1.0351229E0,4.9916664E-1,-7.760226E-2,1.08359516E-1,6.449277E-1,1.0627513E0,4.428173E-2,-1.9639924E-1,4.894395E-1,-1.5371646E-1,-1.3284079E-2,4.915502E-2,1.1737616E-1,1.02266006E-1,2.8840577E-2,-1.6640706E-2,5.2532006E-2,8.302437E-2,-6.509953E-2,5.0065547E-2,-4.8707202E-2,9.42855E-2,-5.2929737E-2,-7.57867E-2,2.0511782E-2,4.375179E-2,-4.5908608E-2,-9.3746156E-2,2.8563315E-2,1.0222117E-2,1.1055727E-1],"split_indices":[0,6,0,4,5,28,0,11,17,29,15,5,33,15,10,19,4,11,15,0,7,12,0,22,6,0,0,0,0,0,0,0,0,0,0,0,0,0,0,0,0,0,0,0,0,0,0],"split_type":[0,0,0,0,0,0,0,0,0,0,0,0,0,0,0,0,0,0,0,0,0,0,0,0,0,0,0,0,0,0,0,0,0,0,0,0,0,0,0,0,0,0,0,0,0,0,0],"sum_hessian":[1.2957369E3,4.6530978E2,8.304271E2,2.917934E2,1.7351639E2,7.759859E2,5.444126E1,5.6978924E1,2.3481448E2,1.2551401E2,4.8002384E1,5.26116E2,2.4986984E2,4.912555E1,7.8533735E0,8.0482025E1,1.5433246E2,8.106774E1,4.444627E1,4.1511414E1,6.4909706E0,2.9793445E2,2.281816E2,1.4745708E2,1.0241276E2,9.922099E0,3.920345E1,2.8133583E0,5.040015E0,5.2794353E1,2.7687677E1,8.610778E1,6.822467E1,7.943056E1,1.6371839E0,3.0145073E1,1.4301196E1,5.0322466E0,1.4587243E0,2.4790051E2,5.0033928E1,1.2143368E2,1.0674791E2,5.6116768E1,9.134031E1,4.7317516E1,5.5095245E1],"tree_param":{"num_deleted":"0","num_feature":"34","num_nodes":"47","size_leaf_vector":"0"}},{"base_weights":[1.918132E-6,3.9113253E-1,-2.1626729E-1,1.7427547E-1,6.096039E-1,-1.576372E-1,-1.0968645E0,-4.0320855E-2,5.69363E-1,3.869456E-1,8.367873E-1,2.3763673E-1,-2.7912226E-1,2.893666E-1,-7.609927E-1,6.158852E-1,-1.3901248E0,7.163033E-1,-2.2904448E-2,9.6496266E-1,5.154664E-1,4.6921697E-2,1.0426811E0,-4.7204837E-1,7.909567E-2,1.3667198E-1,1.076033E0,-1.3673079E0,4.4348022E-1,7.160467E-1,-3.1319404E-1,-3.5763684E-1,8.31252E-1,-6.683645E-1,6.6124386E-1,9.983388E-1,-1.3379642E-1,-1.3681884E0,8.404463E-1,3.8952148E-1,-7.6783717E-1,1.3776363E0,-5.430181E-1,-6.797861E-1,-1.0291991E-1,4.698943E-1,-3.135045E-1],"categories":[],"categories_nodes":[],"categories_segments":[],"categories_sizes":[],"default_left":[1,1,1,1,1,1,0,1,1,1,1,1,1,1,1,1,0,1,1,1,1,1,1,1,1,0,0,0,0,0,0,0,0,0,0,0,0,0,0,0,0,0,0,0,0,0,0],"id":17,"left_children":[1,3,5,7,9,11,-1,13,15,17,19,21,23,25,27,29,-1,31,33,35,37,39,41,43,45,-1,-1,-1,-1,-1,-1,-1,-1,-1,-1,-1,-1,-1,-1,-1,-1,-1,-1,-1,-1,-1,-1],"loss_changes":[1.0752736E2,2.1337013E1,4.2088852E1,1.9399876E1,1.1060944E1,3.697579E1,0E0,3.563034E1,8.195318E0,1.5610741E1,4.055237E0,2.7777185E1,4.070082E1,1.2222886E1,3.496991E1,7.6069927E0,0E0,8.208206E0,2.359963E1,2.989334E0,2.1759539E1,4.1491947E1,1.9159859E1,2.9266266E1,3.1879347E1,0E0,0E0,0E0,0E0,0E0,0E0,0E0,0E0,0E0,0E0,0E0,0E0,0E0,0E0,0E0,0E0,0E0,0E0,0E0,0E0,0E0,0E0],"parents":[2147483647,0,0,1,1,2,2,3,3,4,4,5,5,7,7,8,8,9,9,10,10,11,11,12,12,13,13,14,14,15,15,17,17,18,18,19,19,20,20,21,21,22,22,23,23,24,24],"right_children":[2,4,6,8,10,12,-1,14,16,18,20,22,24,26,28,30,-1,32,34,36,38,40,42,44,46,-1,-1,-1,-1,-1,-1,-1,-1,-1,-1,-1,-1,-1,-1,-1,-1,-1,-1,-1,-1,-1,-1],"split_conditions":[-1.0337988E0,3.9371157E-1,1.3619359E0,-2.719074E-1,3.1263822E-1,-8.3169395E-1,-1.0968645E-1,-2.689856E-1,2.155679E0,-2.5753975E-1,4.0145916E-1,1.4313927E0,3.031029E-1,1.2188175E0,1.3106782E0,7.8415096E-1,-1.3901249E-1,-4.0181577E-1,4.894395E-1,2.1763837E0,-5.000373E-1,-4.725966E-1,4.0145916E-1,4.894395E-1,2.7927718E-1,1.3667198E-2,1.07603304E-1,-1.3673079E-1,4.4348024E-2,7.160467E-2,-3.1319406E-2,-3.5763685E-2,8.31252E-2,-6.6836454E-2,6.612439E-2,9.983388E-2,-1.3379643E-2,-1.3681884E-1,8.404463E-2,3.895215E-2,-7.678372E-2,1.3776363E-1,-5.430181E-2,-6.797861E-2,-1.0291991E-2,4.698943E-2,-3.135045E-2],"split_indices":[0,28,0,5,4,10,0,10,1,15,18,1,11,20,1,7,0,13,6,7,1,11,18,6,15,0,0,0,0,0,0,0,0,0,0,0,0,0,0,0,0,0,0,0,0,0,0],"split_type":[0,0,0,0,0,0,0,0,0,0,0,0,0,0,0,0,0,0,0,0,0,0,0,0,0,0,0,0,0,0,0,0,0,0,0,0,0,0,0,0,0,0,0,0,0,0,0],"sum_hessian":[1.2691666E3,4.5160828E2,8.1755835E2,2.2754366E2,2.2406464E2,7.676287E2,4.992965E1,1.4803479E2,7.950886E1,1.145245E2,1.0954013E2,1.8023737E2,5.8739136E2,1.0198016E2,4.605463E1,7.8334724E1,1.1741338E0,6.308297E1,5.1441532E1,7.6872475E1,3.2667656E1,1.4657259E2,3.366477E1,3.8157047E2,2.0582089E2,8.638607E1,1.5594092E1,3.0544004E1,1.5510626E1,7.091849E1,7.4162364E0,5.895099E0,5.718787E1,2.6481045E1,2.4960485E1,7.469492E1,2.1775546E0,4.334407E0,2.8333248E1,1.0355179E2,4.3020805E1,2.7902082E1,5.762685E0,2.4362299E2,1.3794748E2,1.0304844E2,1.0277245E2],"tree_param":{"num_deleted":"0","num_feature":"34","num_nodes":"47","size_leaf_vector":"0"}},{"base_weights":[-2.511198E-5,3.6381894E-1,-1.9914883E-1,1.98777E-1,6.5163994E-1,-1.4437751E-1,-1.0829078E0,7.885611E-2,5.975725E-1,5.2045566E-1,9.9568176E-1,-3.0785567E-1,1.413603E-1,-5.994359E-1,1.7740671E-1,-8.6801566E-2,7.6172477E-1,7.4095917E-1,1.2879808E-1,5.114295E-1,1.0549064E0,-1.3725166E-1,-8.588339E-1,-1.2754445E-1,6.0912895E-1,-8.383998E-1,9.1755444E-1,5.914412E-1,-4.3115772E-2,-2.3101914E0,1.065899E0,8.576143E-1,-1.4107265E0,-2.5669977E-1,8.08116E-1,-1.0751477E0,2.9808855E-1,9.0832275E-1,-7.255863E-1,-2.9403123E-1,4.9527657E-1,-9.359356E-1,1.347859E0,-7.705982E-1,2.4770175E-1,1.2188339E-1,1.0255332E0],"categories":[],"categories_nodes":[],"categories_segments":[],"categories_sizes":[],"default_left":[1,1,1,1,1,1,0,1,1,1,1,1,1,1,1,1,1,1,1,1,0,1,1,1,1,0,0,0,0,0,0,0,0,0,0,0,0,0,0,0,0,0,0,0,0,0,0],"id":18,"left_children":[1,3,5,7,9,11,-1,13,15,17,19,21,23,25,27,29,31,33,35,37,-1,39,41,43,45,-1,-1,-1,-1,-1,-1,-1,-1,-1,-1,-1,-1,-1,-1,-1,-1,-1,-1,-1,-1,-1,-1],"loss_changes":[9.008345E1,2.0761642E1,3.8741486E1,1.3389093E1,6.695793E0,3.5444313E1,0E0,1.4622056E1,7.3459225E0,1.0078966E1,6.945114E-1,4.522461E1,3.4855125E1,1.0838341E1,1.7407476E1,3.6891827E1,1.2118677E1,5.243454E0,9.216389E0,3.914115E0,0E0,3.6789448E1,2.063314E1,4.2753498E1,2.0386578E1,0E0,0E0,0E0,0E0,0E0,0E0,0E0,0E0,0E0,0E0,0E0,0E0,0E0,0E0,0E0,0E0,0E0,0E0,0E0,0E0,0E0,0E0],"parents":[2147483647,0,0,1,1,2,2,3,3,4,4,5,5,7,7,8,8,9,9,10,10,11,11,12,12,13,13,14,14,15,15,16,16,17,17,18,18,19,19,21,21,22,22,23,23,24,24],"right_children":[2,4,6,8,10,12,-1,14,16,18,20,22,24,26,28,30,32,34,36,38,-1,40,42,44,46,-1,-1,-1,-1,-1,-1,-1,-1,-1,-1,-1,-1,-1,-1,-1,-1,-1,-1,-1,-1,-1,-1],"split_conditions":[-1.0337988E0,4.894395E-1,1.3619359E0,5.0788945E-1,-2.719074E-1,4.0982985E-1,-1.08290784E-1,-1.1323311E0,-3.314074E-1,3.5957563E-1,-6.5692955E-1,2.8388137E-1,3.9371157E-1,-2.7200855E-2,-3.6429042E-1,4.0982985E-1,2.0674832E0,-8.621805E-1,-6.296513E-1,7.8415096E-1,1.0549064E-1,1.2876863E0,1.367549E0,-1.9529173E-1,4.894395E-1,-8.383998E-2,9.175544E-2,5.914412E-2,-4.3115774E-3,-2.3101914E-1,1.06589906E-1,8.576143E-2,-1.4107266E-1,-2.5669977E-2,8.0811605E-2,-1.0751478E-1,2.9808855E-2,9.083228E-2,-7.2558634E-2,-2.9403124E-2,4.9527656E-2,-9.359356E-2,1.347859E-1,-7.705982E-2,2.4770176E-2,1.218834E-2,1.0255332E-1],"split_indices":[0,6,0,5,5,33,0,4,15,29,8,24,28,11,15,33,5,1,11,7,0,5,13,0,6,0,0,0,0,0,0,0,0,0,0,0,0,0,0,0,0,0,0,0,0,0,0],"split_type":[0,0,0,0,0,0,0,0,0,0,0,0,0,0,0,0,0,0,0,0,0,0,0,0,0,0,0,0,0,0,0,0,0,0,0,0,0,0,0,0,0,0,0,0,0,0,0],"sum_hessian":[1.2413881E3,4.3879083E2,8.0259717E2,2.7995184E2,1.58839E2,7.568542E2,4.5742985E1,2.1615123E2,6.380061E1,1.1681125E2,4.2027752E1,4.8137146E2,2.7548273E2,2.6776272E1,1.8937495E2,1.243375E1,5.136686E1,7.416465E1,4.2646603E1,5.6299233E0,3.6397827E1,3.6851437E2,1.1285708E2,1.7538628E2,1.0009644E2,2.35188E1,3.2574718E0,6.522743E1,1.2414753E2,3.9024134E0,8.531337E0,4.9775078E1,1.5917833E0,4.4994864E0,6.966516E1,4.597757E0,3.8048847E1,4.463527E0,1.1663965E0,2.957455E2,7.276886E1,1.0960341E2,3.2536724E0,6.424206E1,1.1114422E2,4.672039E1,5.3376053E1],"tree_param":{"num_deleted":"0","num_feature":"34","num_nodes":"47","size_leaf_vector":"0"}},{"base_weights":[5.088897E-6,3.380967E-1,-1.8310407E-1,1.2840813E-1,5.552625E-1,-1.3200149E-1,-1.07016E0,-8.1531745E-1,2.0666543E-1,3.405652E-1,7.806634E-1,-2.3175456E-2,-5.1676524E-1,-1.6455499E0,5.6978524E-1,1.1986005E-2,5.815185E-1,4.9535415E-1,-4.5077303E-1,1.0714829E0,6.154476E-1,-2.0034942E-1,3.252413E-1,-2.1550055E-1,-1.1288463E0,1.1256822E0,-1.0397161E0,3.1212035E-1,-6.281483E-1,6.347184E-1,-1.3448616E0,6.57162E-1,3.8945384E-2,6.6285765E-1,-9.6484464E-1,1.177438E0,4.8416415E-1,2.6227236E-1,9.628551E-1,-4.9164972E-1,1.2662047E-1,6.415131E-1,-2.3730483E-2,-6.2346494E-1,3.869821E-1,-1.2175332E0,8.7432575E-1],"categories":[],"categories_nodes":[],"categories_segments":[],"categories_sizes":[],"default_left":[1,1,1,1,1,1,0,1,1,1,1,1,1,0,1,1,1,1,1,1,1,1,1,1,1,0,0,0,0,0,0,0,0,0,0,0,0,0,0,0,0,0,0,0,0,0,0],"id":19,"left_children":[1,3,5,7,9,11,-1,13,15,17,19,21,23,-1,25,27,29,31,33,35,37,39,41,43,45,-1,-1,-1,-1,-1,-1,-1,-1,-1,-1,-1,-1,-1,-1,-1,-1,-1,-1,-1,-1,-1,-1],"loss_changes":[7.5355804E1,1.9402187E1,3.5651524E1,1.6332485E1,9.8856735E0,3.129683E1,0E0,2.044278E1,1.48001995E1,1.3600632E1,4.220398E0,3.6110226E1,3.0147354E1,0E0,7.5223875E0,2.6050083E1,7.959425E0,6.7554016E0,1.1168043E1,1.6356468E0,7.982418E0,3.6988964E1,2.1781805E1,2.7692122E1,1.0680298E1,0E0,0E0,0E0,0E0,0E0,0E0,0E0,0E0,0E0,0E0,0E0,0E0,0E0,0E0,0E0,0E0,0E0,0E0,0E0,0E0,0E0,0E0],"parents":[2147483647,0,0,1,1,2,2,3,3,4,4,5,5,7,7,8,8,9,9,10,10,11,11,12,12,14,14,15,15,16,16,17,17,18,18,19,19,20,20,21,21,22,22,23,23,24,24],"right_children":[2,4,6,8,10,12,-1,14,16,18,20,22,24,-1,26,28,30,32,34,36,38,40,42,44,46,-1,-1,-1,-1,-1,-1,-1,-1,-1,-1,-1,-1,-1,-1,-1,-1,-1,-1,-1,-1,-1,-1],"split_conditions":[-1.0337988E0,3.9371157E-1,1.3619359E0,-1.1614025E0,3.1263822E-1,8.564311E-1,-1.07016005E-1,1.6282938E0,-2.719074E-1,2.9500383E-1,-4.6170515E-1,3.9371157E-1,2.8388137E-1,-1.64555E-1,-5.5033976E-1,3.5957563E-1,2.155679E0,3.5957563E-1,-1.1649749E0,2.8388137E-1,4.0982985E-1,1.1799102E-1,-2.092942E-1,4.0982985E-1,1.4164433E0,1.1256822E-1,-1.03971615E-1,3.1212036E-2,-6.281483E-2,6.347185E-2,-1.3448617E-1,6.57162E-2,3.8945384E-3,6.628577E-2,-9.648447E-2,1.17743805E-1,4.8416417E-2,2.6227236E-2,9.6285515E-2,-4.9164973E-2,1.26620475E-2,6.415131E-2,-2.3730483E-3,-6.2346496E-2,3.869821E-2,-1.2175333E-1,8.743258E-2],"split_indices":[0,28,0,3,4,10,0,21,5,15,17,28,24,0,10,29,1,29,7,24,33,5,13,33,13,0,0,0,0,0,0,0,0,0,0,0,0,0,0,0,0,0,0,0,0,0,0],"split_type":[0,0,0,0,0,0,0,0,0,0,0,0,0,0,0,0,0,0,0,0,0,0,0,0,0,0,0,0,0,0,0,0,0,0,0,0,0,0,0,0,0,0,0,0,0,0,0],"sum_hessian":[1.215229E3,4.26639E2,7.8859E2,2.1786583E2,2.0877316E2,7.467209E2,4.1869175E1,1.5961646E1,2.0190419E2,1.0821134E2,1.0056183E2,5.829113E2,1.6380956E2,9.862197E0,6.099449E0,1.3356787E2,6.833632E1,9.082051E1,1.7390825E1,3.4444992E1,6.611684E1,3.8669656E2,1.9621472E2,1.106835E2,5.3126057E1,4.757042E0,1.3424072E0,9.128177E1,4.2286095E1,6.715231E1,1.1840014E0,6.672503E1,2.4095484E1,5.4010763E0,1.198975E1,2.8329454E1,6.1155357E0,3.3656506E1,3.2460335E1,2.042367E2,1.8245988E2,1.0249007E2,9.3724655E1,6.597467E1,4.470883E1,5.1249283E1,1.876776E0],"tree_param":{"num_deleted":"0","num_feature":"34","num_nodes":"47","size_leaf_vector":"0"}},{"base_weights":[-1.7750249E-4,3.1372836E-1,-1.6787915E-1,1.5430227E-1,6.0328656E-1,3.7065133E-1,-2.4889554E-1,8.259918E-2,8.136021E-1,3.2255965E-1,7.694583E-1,1.7905322E-1,9.156963E-1,-4.175504E-1,2.8363133E-2,-2.0692867E-1,3.6197338E-1,1.1104827E0,-1.4798977E-2,6.005873E-1,-3.3524367E-1,5.658481E-1,9.922308E-1,4.7293243E-1,-5.3770965E-1,-9.7538173E-1,1.0425392E0,-2.3430401E-1,-8.332396E-1,1.6532513E-1,-1.0411898E0,-2.0761704E0,-6.335809E-2,5.79857E-1,-5.9420455E-2,6.02316E-1,1.2313275E0,8.083902E-1,-1.6082454E0,-3.564784E-1,7.445949E-1,9.9576056E-2,-1.496208E0,-3.031596E-1,7.168338E-1,1.0272654E0,3.7719876E-1,6.4498395E-1,-9.809533E-1,-1.4769593E0,4.92314E-1,-2.0805196E-1,1.3113606E0,-4.0751666E-1,3.6448562E-1,-9.60015E-1,2.1638747E-1,9.7165555E-2,1.4583441E0,-1.2869916E0,-4.557834E-1],"categories":[],"categories_nodes":[],"categories_segments":[],"categories_sizes":[],"default_left":[1,1,1,1,1,1,1,1,1,1,1,1,1,1,1,1,1,1,1,1,1,1,1,1,1,0,1,1,1,1,1,0,0,0,0,0,0,0,0,0,0,0,0,0,0,0,0,0,0,0,0,0,0,0,0,0,0,0,0,0,0],"id":20,"left_children":[1,3,5,7,9,11,13,15,17,19,21,23,25,27,29,31,33,35,37,39,41,43,45,47,49,-1,51,53,55,57,59,-1,-1,-1,-1,-1,-1,-1,-1,-1,-1,-1,-1,-1,-1,-1,-1,-1,-1,-1,-1,-1,-1,-1,-1,-1,-1,-1,-1,-1,-1],"loss_changes":[6.2951412E1,1.9129341E1,3.4098427E1,1.269149E1,6.6331253E0,1.05218E1,3.1720509E1,1.9854029E1,6.499325E0,1.0547663E1,3.608879E0,1.6463963E1,7.342554E0,3.1926445E1,3.78796E1,3.2265488E1,1.1493898E1,4.508438E-1,1.171684E1,5.795397E0,8.957344E0,6.825409E0,5.299492E-1,1.4417788E1,2.2828426E1,0E0,8.743696E0,3.0648262E1,1.7323662E1,2.0045015E1,3.637827E0,0E0,0E0,0E0,0E0,0E0,0E0,0E0,0E0,0E0,0E0,0E0,0E0,0E0,0E0,0E0,0E0,0E0,0E0,0E0,0E0,0E0,0E0,0E0,0E0,0E0,0E0,0E0,0E0,0E0,0E0],"parents":[2147483647,0,0,1,1,2,2,3,3,4,4,5,5,6,6,7,7,8,8,9,9,10,10,11,11,12,12,13,13,14,14,15,15,16,16,17,17,18,18,19,19,20,20,21,21,22,22,23,23,24,24,26,26,27,27,28,28,29,29,30,30],"right_children":[2,4,6,8,10,12,14,16,18,20,22,24,26,28,30,32,34,36,38,40,42,44,46,48,50,-1,52,54,56,58,60,-1,-1,-1,-1,-1,-1,-1,-1,-1,-1,-1,-1,-1,-1,-1,-1,-1,-1,-1,-1,-1,-1,-1,-1,-1,-1,-1,-1,-1,-1],"split_conditions":[-1.0337988E0,4.894395E-1,-1.0947043E0,3.6136186E-1,-3.7932295E-1,1.0351229E0,4.0982985E-1,3.9371157E-1,5.407754E-1,-7.0780545E-2,2.2725788E-1,-3.296352E-1,-1.0517042E0,5.7507694E-1,1.0025756E0,-8.096919E-1,4.0145916E-1,2.0440884E-1,-6.0808176E-1,-1.1323311E0,2.8417897E-1,-8.3894956E-1,5.306654E-1,1.4498784E-1,4.894395E-1,-9.753817E-2,-6.207517E-1,1.0351229E0,2.5779219E0,1.7511568E0,3.9371157E-1,-2.0761704E-1,-6.3358094E-3,5.79857E-2,-5.9420457E-3,6.0231604E-2,1.2313276E-1,8.083902E-2,-1.6082454E-1,-3.564784E-2,7.4459486E-2,9.957606E-3,-1.496208E-1,-3.031596E-2,7.168338E-2,1.0272654E-1,3.7719876E-2,6.4498395E-2,-9.809533E-2,-1.4769594E-1,4.9231403E-2,-2.0805197E-2,1.3113606E-1,-4.0751666E-2,3.6448564E-2,-9.60015E-2,2.1638747E-2,9.7165555E-3,1.4583442E-1,-1.2869917E-1,-4.5578342E-2],"split_indices":[0,6,11,11,1,4,33,28,15,27,7,7,5,10,0,15,18,9,7,4,15,15,15,15,6,0,1,4,8,3,28,0,0,0,0,0,0,0,0,0,0,0,0,0,0,0,0,0,0,0,0,0,0,0,0,0,0,0,0,0,0],"split_type":[0,0,0,0,0,0,0,0,0,0,0,0,0,0,0,0,0,0,0,0,0,0,0,0,0,0,0,0,0,0,0,0,0,0,0,0,0,0,0,0,0,0,0,0,0,0,0,0,0,0,0,0,0,0,0,0,0,0,0,0,0],"sum_hessian":[1.1938275E3,4.154022E2,7.7842535E2,2.6888907E2,1.465131E2,1.0132499E2,6.7710034E2,2.4352902E2,2.5360062E1,5.5572037E1,9.094107E1,7.5953705E1,2.5371283E1,4.2069064E2,2.5640973E2,1.1971862E2,1.23810394E2,1.8418697E1,6.9413652E0,3.9123184E1,1.6448853E1,4.9363613E1,4.157746E1,5.4108795E1,2.184491E1,1.1742927E0,2.419699E1,2.9306415E2,1.2762649E2,2.2805188E2,2.8357843E1,7.5791826E0,1.1213944E2,8.136447E1,4.2445923E1,4.688256E0,1.3730441E1,4.9017525E0,2.0396125E0,4.923891E0,3.4199295E1,1.2631984E1,3.8168685E0,7.1579113E0,4.22057E1,3.870255E1,2.8749123E0,4.8880676E1,5.2281218E0,1.1198973E1,1.0645937E1,4.321036E0,1.9875954E1,2.2755768E2,6.550647E1,1.1394896E2,1.3677533E1,2.1765373E2,1.0398148E1,1.9127913E1,9.22993E0],"tree_param":{"num_deleted":"0","num_feature":"34","num_nodes":"61","size_leaf_vector":"0"}},{"base_weights":[-3.35441E-4,-1.6785583E-1,2.7735433E-1,-9.868912E-1,-9.8125644E-2,9.055276E-2,5.9348905E-1,-1.3477819E0,-3.0921668E-1,-3.9406616E-2,-8.0754447E-1,1.623635E-1,-1.2041336E0,7.493898E-1,-2.0570424E-1,3.755595E-2,-1.3923401E0,5.8582443E-1,-1.0547708E0,-2.34893E-1,2.6335245E-1,-1.3027205E0,-1.6642667E-1,1.1006123E0,7.765099E-2,-7.5974286E-2,8.937125E-1,8.5438234E-1,-9.750703E-1,1.1113474E0,-5.1157784E-1,-1.3109465E0,2.6945943E-1,-6.1120296E-1,-1.0115237E-2,5.5893826E-1,-2.7232817E-1,1.9022015E0,-6.7130315E-1,1.4629068E0,-2.153652E-2,6.0897246E-3,1.3092097E0,3.3271465E-1,-9.1033655E-1,1.0232292E0,5.0876707E-1,1.0028847E0,2.6383923E-2,6.363945E-1,-1.4677081E0],"categories":[],"categories_nodes":[],"categories_segments":[],"categories_sizes":[],"default_left":[1,1,1,1,1,1,1,1,1,1,1,1,0,1,1,0,0,1,1,1,1,0,1,1,1,1,1,1,1,0,0,0,0,0,0,0,0,0,0,0,0,0,0,0,0,0,0,0,0,0,0],"id":21,"left_children":[1,3,5,7,9,11,13,15,17,19,21,23,-1,25,27,-1,-1,29,31,33,35,-1,37,39,41,43,45,47,49,-1,-1,-1,-1,-1,-1,-1,-1,-1,-1,-1,-1,-1,-1,-1,-1,-1,-1,-1,-1,-1,-1],"loss_changes":[5.4625153E1,4.1732662E1,2.6039078E1,1.3609917E1,2.8130608E1,2.612672E1,2.057901E1,2.3439941E0,1.4782975E1,3.7078453E1,1.6173779E1,2.0988008E1,0E0,1.643328E1,2.329707E1,0E0,0E0,6.50261E0,4.402994E0,3.2185173E1,3.9081726E1,0E0,2.5972467E1,8.926937E0,2.1518833E1,7.5897913E0,5.313545E0,1.4633284E0,1.3974925E1,0E0,0E0,0E0,0E0,0E0,0E0,0E0,0E0,0E0,0E0,0E0,0E0,0E0,0E0,0E0,0E0,0E0,0E0,0E0,0E0,0E0,0E0],"parents":[2147483647,0,0,1,1,2,2,3,3,4,4,5,5,6,6,7,7,8,8,9,9,10,10,11,11,13,13,14,14,17,17,18,18,19,19,20,20,22,22,23,23,24,24,25,25,26,26,27,27,28,28],"right_children":[2,4,6,8,10,12,14,16,18,20,22,24,-1,26,28,-1,-1,30,32,34,36,-1,38,40,42,44,46,48,50,-1,-1,-1,-1,-1,-1,-1,-1,-1,-1,-1,-1,-1,-1,-1,-1,-1,-1,-1,-1,-1,-1],"split_conditions":[3.9371157E-1,-1.1614025E0,4.894395E-1,1.0353455E-1,1.5709479E0,1.1111912E0,4.0145916E-1,-1.1603984E0,-5.5033976E-1,1.1799102E-1,2.4021564E0,-1.1567318E0,-1.2041336E-1,-1.1323311E0,-1.0337988E0,3.7555953E-3,-1.39234E-1,-6.0031813E-1,1.2876863E0,-2.5860858E-1,4.428173E-2,-1.3027206E-1,-6.172391E-1,-6.172391E-1,1.7511568E0,3.5957563E-1,2.8388137E-1,4.0982985E-1,-1.1022413E0,1.11134745E-1,-5.1157784E-2,-1.3109465E-1,2.6945943E-2,-6.1120298E-2,-1.0115238E-3,5.5893827E-2,-2.7232816E-2,1.9022016E-1,-6.713032E-2,1.4629069E-1,-2.153652E-3,6.0897245E-4,1.3092098E-1,3.3271465E-2,-9.103366E-2,1.0232293E-1,5.0876707E-2,1.0028847E-1,2.6383924E-3,6.3639455E-2,-1.4677082E-1],"split_indices":[28,3,6,1,11,11,18,11,10,5,11,11,0,4,0,0,0,11,5,1,0,0,2,2,3,29,24,33,11,0,0,0,0,0,0,0,0,0,0,0,0,0,0,0,0,0,0,0,0,0,0],"split_type":[0,0,0,0,0,0,0,0,0,0,0,0,0,0,0,0,0,0,0,0,0,0,0,0,0,0,0,0,0,0,0,0,0,0,0,0,0,0,0,0,0,0,0,0,0,0,0,0,0,0,0],"sum_hessian":[1.1722616E3,7.314184E2,4.4084326E2,5.635319E1,6.750652E2,2.7791306E2,1.629302E2,3.6125813E1,2.0227377E1,6.244358E2,5.0629387E1,2.641371E2,1.3775968E1,1.3638713E2,2.6543077E1,1.1306427E0,3.499517E1,9.2895155E0,1.0937861E1,3.7957492E2,2.448609E2,2.7983782E1,2.2645607E1,2.0880377E1,2.432567E2,2.0369574E1,1.16017555E2,1.1116072E1,1.5427006E1,6.2728643E0,3.0166512E0,9.173296E0,1.7645653E0,1.4129979E2,2.3827512E2,1.5776408E2,8.709682E1,3.8997052E0,1.8745901E1,1.5554741E1,5.325635E0,2.3084793E2,1.2408764E1,1.4076051E1,6.2935233E0,8.5569244E1,3.0448313E1,9.246489E0,1.8695832E0,3.5436342E0,1.1883371E1],"tree_param":{"num_deleted":"0","num_feature":"34","num_nodes":"51","size_leaf_vector":"0"}},{"base_weights":[-3.8694788E-4,2.8245184E-1,-1.5005672E-1,1.3988897E-1,5.5570406E-1,-1.0542241E-1,-1.0477207E0,7.256095E-2,7.835518E-1,4.1901356E-1,9.446217E-1,2.45245E-2,-3.8629568E-1,-7.267075E-1,1.555085E-1,1.0807025E0,-4.4347625E-2,8.6054903E-1,2.225993E-1,1.0181682E0,4.0572107E-1,-1.5980338E-1,3.2327312E-1,-1.9952959E-1,-1.083099E0,-1.173599E0,2.6600322E-1,4.763462E-1,-2.478667E-2,5.7269984E-1,1.2062135E0,6.94613E-1,-1.6501881E0,9.851336E-1,-4.2162135E-1,-7.1208985E-3,8.350717E-1,8.5561603E-1,-7.378321E-1,2.800549E-1,-3.7553915E-1,6.3622046E-1,-6.358052E-2,-4.140563E-1,6.405104E-1,-1.1797097E0,7.714844E-1],"categories":[],"categories_nodes":[],"categories_segments":[],"categories_sizes":[],"default_left":[1,1,1,1,1,1,0,1,1,1,1,1,1,1,1,1,1,1,1,0,1,1,1,1,1,0,0,0,0,0,0,0,0,0,0,0,0,0,0,0,0,0,0,0,0,0,0],"id":22,"left_children":[1,3,5,7,9,11,-1,13,15,17,19,21,23,25,27,29,31,33,35,-1,37,39,41,43,45,-1,-1,-1,-1,-1,-1,-1,-1,-1,-1,-1,-1,-1,-1,-1,-1,-1,-1,-1,-1,-1,-1],"loss_changes":[4.9025414E1,1.5534252E1,3.0233639E1,1.141422E1,6.8907967E0,2.6382626E1,0E0,1.607302E1,6.1892805E0,8.759869E0,9.681015E-1,2.7307972E1,2.9536259E1,1.0431689E1,1.26755295E1,4.830017E-1,1.01102915E1,5.4359474E0,1.024695E1,0E0,3.6396015E0,2.9215258E1,2.2945082E1,3.2977192E1,9.528149E0,0E0,0E0,0E0,0E0,0E0,0E0,0E0,0E0,0E0,0E0,0E0,0E0,0E0,0E0,0E0,0E0,0E0,0E0,0E0,0E0,0E0,0E0],"parents":[2147483647,0,0,1,1,2,2,3,3,4,4,5,5,7,7,8,8,9,9,10,10,11,11,12,12,13,13,14,14,15,15,16,16,17,17,18,18,20,20,21,21,22,22,23,23,24,24],"right_children":[2,4,6,8,10,12,-1,14,16,18,20,22,24,26,28,30,32,34,36,-1,38,40,42,44,46,-1,-1,-1,-1,-1,-1,-1,-1,-1,-1,-1,-1,-1,-1,-1,-1,-1,-1,-1,-1,-1,-1],"split_conditions":[-1.0337988E0,4.894395E-1,1.3619359E0,3.6136186E-1,-2.719074E-1,2.8388137E-1,-1.0477207E-1,-9.828948E-1,5.407754E-1,-8.3169395E-1,4.3351418E-1,4.894395E-1,8.564311E-1,4.0982985E-1,-8.3169395E-1,2.0440884E-1,4.0982985E-1,2.9163384E-1,4.2135423E-1,1.01816826E-1,6.449277E-1,-4.098464E-1,-4.1973576E-1,1.3106782E0,1.4164433E0,-1.173599E-1,2.6600322E-2,4.763462E-2,-2.478667E-3,5.7269987E-2,1.20621346E-1,6.94613E-2,-1.6501881E-1,9.851336E-2,-4.2162135E-2,-7.120899E-4,8.350717E-2,8.55616E-2,-7.378321E-2,2.800549E-2,-3.7553918E-2,6.362205E-2,-6.358052E-3,-4.140563E-2,6.405104E-2,-1.17970966E-1,7.714844E-2],"split_indices":[0,6,0,11,5,24,0,1,15,10,15,6,10,33,10,9,33,15,8,0,7,4,11,1,13,0,0,0,0,0,0,0,0,0,0,0,0,0,0,0,0,0,0,0,0,0,0],"split_type":[0,0,0,0,0,0,0,0,0,0,0,0,0,0,0,0,0,0,0,0,0,0,0,0,0,0,0,0,0,0,0,0,0,0,0,0,0,0,0,0,0,0,0,0,0,0,0],"sum_hessian":[1.1561045E3,3.9976346E2,7.5634106E2,2.6369748E2,1.3606596E2,7.215796E2,3.476147E1,2.3973375E2,2.3963745E1,1.0221757E2,3.3848396E1,4.9396005E2,2.276195E2,2.1810492E1,2.1792325E2,1.7409685E1,6.5540614E0,3.043007E1,7.17875E1,2.9001118E1,4.847278E0,3.0576697E2,1.881931E2,1.8052046E2,4.709904E1,1.4914273E1,6.8962193E0,7.7812614E1,1.4011064E2,4.551308E0,1.28583765E1,4.877175E0,1.6768867E0,2.7946283E1,2.4837866E0,5.2925205E1,1.8862297E1,3.659396E0,1.1878823E0,1.0052036E2,2.052466E2,1.0367779E2,8.451531E1,1.4420178E2,3.6318687E1,4.5112873E1,1.9861649E0],"tree_param":{"num_deleted":"0","num_feature":"34","num_nodes":"47","size_leaf_vector":"0"}},{"base_weights":[-2.1163237E-4,-1.5427685E-1,2.567576E-1,-9.5078796E-1,-8.9648426E-2,3.9196447E-1,-1.2804924E-1,-1.3020692E0,-3.0238178E-1,-2.134043E-1,2.0369239E-1,-7.321192E-2,5.661548E-1,5.0316826E-2,-1.4004835E0,1.0073796E-2,-1.3460717E0,5.3037035E-1,-1.0123761E0,-9.270441E-1,-1.2697789E-1,5.104656E-1,-2.4759598E-1,4.4227913E-1,-4.0539718E-1,3.3210555E-1,8.765574E-1,8.3566505E-1,-3.1204227E-1,1.0364838E0,-4.926994E-1,-1.2672492E0,2.3901463E-1,-4.661888E-1,-1.3185027E0,-2.3985484E-1,4.04639E-1,-3.364058E-1,7.6270276E-1,1.5100759E0,-3.880143E-1,-1.3362092E0,9.3589115E-1,-7.83499E-1,9.753686E-1,5.641928E-1,-4.660707E-1,5.444025E-1,1.0896963E0,1.2030377E0,-4.6818224E-1,6.062746E-2,-1.0354972E0],"categories":[],"categories_nodes":[],"categories_segments":[],"categories_sizes":[],"default_left":[1,1,1,1,1,1,1,1,1,1,1,1,1,1,0,0,0,1,1,1,1,1,1,1,1,1,1,1,1,0,0,0,0,0,0,0,0,0,0,0,0,0,0,0,0,0,0,0,0,0,0,0,0],"id":23,"left_children":[1,3,5,7,9,11,13,15,17,19,21,23,25,27,-1,-1,-1,29,31,33,35,37,39,41,43,45,47,49,51,-1,-1,-1,-1,-1,-1,-1,-1,-1,-1,-1,-1,-1,-1,-1,-1,-1,-1,-1,-1,-1,-1,-1,-1],"loss_changes":[4.50594E1,3.654312E1,2.2245846E1,1.1745945E1,2.3975891E1,2.5641136E1,2.5415874E1,1.9920311E0,1.2380041E1,2.8508692E1,2.7277245E1,1.5069943E1,1.6416313E1,2.8408283E1,0E0,0E0,0E0,5.623644E0,3.861063E0,8.401768E0,2.500927E1,2.526587E1,2.0339962E1,3.1586079E1,2.8644398E1,2.4849262E1,6.3624573E0,1.5651709E1,1.8506674E1,0E0,0E0,0E0,0E0,0E0,0E0,0E0,0E0,0E0,0E0,0E0,0E0,0E0,0E0,0E0,0E0,0E0,0E0,0E0,0E0,0E0,0E0,0E0,0E0],"parents":[2147483647,0,0,1,1,2,2,3,3,4,4,5,5,6,6,7,7,8,8,9,9,10,10,11,11,12,12,13,13,17,17,18,18,19,19,20,20,21,21,22,22,23,23,24,24,25,25,26,26,27,27,28,28],"right_children":[2,4,6,8,10,12,14,16,18,20,22,24,26,28,-1,-1,-1,30,32,34,36,38,40,42,44,46,48,50,52,-1,-1,-1,-1,-1,-1,-1,-1,-1,-1,-1,-1,-1,-1,-1,-1,-1,-1,-1,-1,-1,-1,-1,-1],"split_conditions":[3.9371157E-1,-1.1614025E0,4.0145916E-1,1.0353455E-1,5.0788945E-1,-4.098464E-1,5.59804E-1,-1.1603984E0,-5.5033976E-1,-9.828948E-1,4.428173E-2,-8.3169395E-1,4.894395E-1,-5.729461E-1,-1.4004835E-1,1.0073796E-3,-1.3460718E-1,-6.0031813E-1,1.2876863E0,-2.4637452E-1,1.2188175E0,-1.9054931E-1,-1.7967372E0,2.7691728E-1,7.71399E-1,-7.5505E-2,4.0982985E-1,5.057044E-1,-4.2239666E-1,1.0364838E-1,-4.926994E-2,-1.2672493E-1,2.3901463E-2,-4.661888E-2,-1.3185027E-1,-2.3985485E-2,4.0463902E-2,-3.3640582E-2,7.6270275E-2,1.510076E-1,-3.8801428E-2,-1.3362092E-1,9.358912E-2,-7.83499E-2,9.753686E-2,5.641928E-2,-4.6607073E-2,5.444025E-2,1.0896963E-1,1.2030377E-1,-4.6818223E-2,6.062746E-3,-1.0354972E-1],"split_indices":[28,3,18,1,5,4,15,11,10,1,0,10,6,13,0,0,0,11,5,15,20,3,15,16,15,0,33,7,12,0,0,0,0,0,0,0,0,0,0,0,0,0,0,0,0,0,0,0,0,0,0,0,0],"split_type":[0,0,0,0,0,0,0,0,0,0,0,0,0,0,0,0,0,0,0,0,0,0,0,0,0,0,0,0,0,0,0,0,0,0,0,0,0,0,0,0,0,0,0,0,0,0,0,0,0,0,0,0,0],"sum_hessian":[1.1361499E3,7.105445E2,4.2560544E2,5.229723E1,6.5824725E2,3.1493155E2,1.10673904E2,3.3266582E1,1.9030647E1,4.6313174E2,1.951155E2,8.5958496E1,2.2897305E2,9.790967E1,1.2764233E1,1.1044109E0,3.216217E1,8.874611E0,1.0156035E1,4.8978695E1,4.1415305E2,1.1607787E2,7.903762E1,3.355532E1,5.2403175E1,1.317221E2,9.7250946E1,3.050007E1,6.74096E1,5.928611E0,2.946E0,8.427016E0,1.729019E0,2.3501642E1,2.547705E1,3.420708E2,7.208226E1,2.6562418E1,8.951545E1,5.1255045E0,7.391212E1,6.919022E0,2.66363E1,4.14777E1,1.0925477E1,1.022762E2,2.94459E1,3.94017E1,5.7849247E1,2.3855772E1,6.644298E0,4.5095814E1,2.2313786E1],"tree_param":{"num_deleted":"0","num_feature":"34","num_nodes":"53","size_leaf_vector":"0"}},{"base_weights":[-5.053909E-4,3.1832606E-1,-1.13280095E-1,5.264592E-1,-1.9361177E-1,-2.6846397E-1,1.4280504E-1,-1.2596998E0,5.7618254E-1,-1.0338385E0,1.7764412E-1,1.2354231E0,-3.1236264E-1,2.1133533E-1,-1.1954622E0,-2.1365013E0,2.1947925E-1,3.7861496E-1,9.7102934E-1,-1.3595376E0,3.5288325E-1,-2.1176124E-1,1.1885313E0,-7.6077724E-1,1.5298985E0,-1.2125518E-1,-5.6168914E-1,5.2704275E-1,-1.2770227E-1,-7.1349375E-2,4.1594675E-1,5.628691E-1,-2.8430954E-1,1.0734304E0,-7.294561E-2,-1.0052795E0,1.4966671E0,9.7584784E-1,-6.2043154E-1,-9.3766165E-1,1.9369373E0,3.8925064E-1,1.6780541E0,9.673812E-2,-4.9616012E-1,-6.469852E-1,6.926097E-1,7.025774E-1,-7.3125504E-2,-5.9645784E-1,5.0420713E-1],"categories":[],"categories_nodes":[],"categories_segments":[],"categories_sizes":[],"default_left":[1,1,1,1,1,1,1,1,1,1,1,1,1,1,0,0,1,1,1,0,1,1,1,0,1,1,1,1,1,0,0,0,0,0,0,0,0,0,0,0,0,0,0,0,0,0,0,0,0,0,0],"id":24,"left_children":[1,3,5,7,9,11,13,15,17,19,21,23,25,27,-1,-1,29,31,33,-1,35,37,39,-1,41,43,45,47,49,-1,-1,-1,-1,-1,-1,-1,-1,-1,-1,-1,-1,-1,-1,-1,-1,-1,-1,-1,-1,-1,-1],"loss_changes":[4.0331425E1,3.1330635E1,3.296695E1,1.9255894E1,2.6837711E1,3.4470646E1,2.8986526E1,8.204783E0,1.5520836E1,1.2372461E1,2.3915598E1,9.890244E0,2.3872437E1,3.2059887E1,0E0,0E0,2.0832948E-1,1.6941687E1,7.2714195E0,0E0,1.0517839E1,2.2080015E1,2.8658272E1,0E0,1.5891361E0,2.339778E1,2.3743279E1,1.6377209E1,4.3229603E1,0E0,0E0,0E0,0E0,0E0,0E0,0E0,0E0,0E0,0E0,0E0,0E0,0E0,0E0,0E0,0E0,0E0,0E0,0E0,0E0,0E0,0E0],"parents":[2147483647,0,0,1,1,2,2,3,3,4,4,5,5,6,6,7,7,8,8,9,9,10,10,11,11,12,12,13,13,16,16,17,17,18,18,20,20,21,21,22,22,24,24,25,25,26,26,27,27,28,28],"right_children":[2,4,6,8,10,12,14,16,18,20,22,24,26,28,-1,-1,30,32,34,-1,36,38,40,-1,42,44,46,48,50,-1,-1,-1,-1,-1,-1,-1,-1,-1,-1,-1,-1,-1,-1,-1,-1,-1,-1,-1,-1,-1,-1],"split_conditions":[-8.3169395E-1,-5.0056237E-1,4.0982985E-1,-1.1036091E0,-1.9639924E-1,-1.7968276E0,1.1223624E0,-6.128458E-1,4.894395E-1,2.0349646E0,1.0025756E0,3.364967E-2,-1.9529173E-1,2.8388137E-1,-1.1954623E-1,-2.1365014E-1,-5.0597495E-1,4.0145916E-1,9.971889E-1,-1.3595377E-1,4.0982985E-1,-9.828948E-1,2.7691728E-1,-7.607772E-2,-1.8923262E0,-5.1188666E-2,2.1556787E0,3.932444E-1,3.9371157E-1,-7.1349377E-3,4.1594677E-2,5.628691E-2,-2.8430954E-2,1.0734304E-1,-7.2945612E-3,-1.0052796E-1,1.4966671E-1,9.7584784E-2,-6.2043156E-2,-9.376617E-2,1.9369374E-1,3.8925063E-2,1.6780542E-1,9.673812E-3,-4.9616013E-2,-6.469852E-2,6.926098E-2,7.0257746E-2,-7.3125507E-3,-5.9645783E-2,5.0420713E-2],"split_indices":[10,12,33,1,22,15,0,11,6,1,0,13,0,24,0,0,9,18,15,0,33,1,16,0,15,7,1,15,28,0,0,0,0,0,0,0,0,0,0,0,0,0,0,0,0,0,0,0,0,0,0],"split_type":[0,0,0,0,0,0,0,0,0,0,0,0,0,0,0,0,0,0,0,0,0,0,0,0,0,0,0,0,0,0,0,0,0,0,0,0,0,0,0,0,0,0,0,0,0,0,0,0,0,0,0],"sum_hessian":[1.1196816E3,2.9208624E2,8.275954E2,2.076399E2,8.4446335E1,5.152893E2,3.1230615E2,4.9646754E0,2.0267522E2,2.5331455E1,5.9114883E1,1.3844941E1,5.0144434E2,2.9789362E2,1.441252E1,2.8380208E0,2.1266544E0,1.3638954E2,6.6285675E1,2.0529337E1,4.8021183E0,4.3246395E1,1.5868488E1,1.576257E0,1.2268683E1,2.8470544E2,2.167389E2,1.5396701E2,1.439266E2,1.1141821E0,1.0124724E0,1.0684409E2,2.9545458E1,6.0338955E1,5.946719E0,2.2506835E0,2.551435E0,1.0716381E1,3.253001E1,4.0655475E0,1.1802941E1,1.8273382E0,1.0441345E1,1.804958E2,1.0420964E2,2.0339185E2,1.3347065E1,1.1899362E2,3.497339E1,8.266278E1,6.1263824E1],"tree_param":{"num_deleted":"0","num_feature":"34","num_nodes":"51","size_leaf_vector":"0"}},{"base_weights":[-5.4615346E-4,2.404156E-1,-1.2710926E-1,1.2090514E-1,5.5195445E-1,-8.818591E-2,-1.0285691E0,5.0007796E-1,-5.0829604E-2,6.6577E-1,3.8939265E-3,-2.0672907E-1,1.6971971E-1,3.6105353E-1,8.859312E-1,-2.0415203E-1,5.857291E-1,2.5857976E-1,8.426032E-1,-8.689299E-1,4.3279174E-1,-3.2433736E-1,3.9056718E-1,5.798999E-1,-1.2232821E-1,-4.6470966E-2,5.7801443E-1,9.6877605E-1,7.112783E-2,-9.7110283E-1,-1.0191354E-2,9.0760803E-1,-1.07776314E-1,1.0844119E0,-3.6802122E-1,4.632627E-1,9.613236E-1,6.8136495E-1,-1.5238982E0,-5.256859E-1,8.4667087E-1,1.2354317E-1,-4.6689022E-1,8.418127E-1,-5.2991164E-1,8.9571077E-1,-8.40284E-2,-5.153476E-1,4.138157E-1],"categories":[],"categories_nodes":[],"categories_segments":[],"categories_sizes":[],"default_left":[1,1,1,1,1,1,0,1,1,1,1,1,1,1,1,1,1,1,1,1,1,1,1,1,1,0,0,0,0,0,0,0,0,0,0,0,0,0,0,0,0,0,0,0,0,0,0,0,0],"id":25,"left_children":[1,3,5,7,9,11,-1,13,15,17,19,21,23,25,27,29,31,33,35,37,39,41,43,45,47,-1,-1,-1,-1,-1,-1,-1,-1,-1,-1,-1,-1,-1,-1,-1,-1,-1,-1,-1,-1,-1,-1,-1,-1],"loss_changes":[3.3717205E1,1.4108681E1,2.534317E1,1.8027157E1,6.5644684E0,2.1312454E1,0E0,4.307953E0,1.8778591E1,6.0587234E0,7.5297594E0,3.365206E1,2.638979E1,5.78351E0,1.4271202E0,2.301977E1,8.439335E0,1.4803441E1,2.271778E0,7.7691545E0,5.7928143E0,2.5550652E1,3.324541E1,1.9270327E1,2.7428719E1,0E0,0E0,0E0,0E0,0E0,0E0,0E0,0E0,0E0,0E0,0E0,0E0,0E0,0E0,0E0,0E0,0E0,0E0,0E0,0E0,0E0,0E0,0E0,0E0],"parents":[2147483647,0,0,1,1,2,2,3,3,4,4,5,5,7,7,8,8,9,9,10,10,11,11,12,12,13,13,14,14,15,15,16,16,17,17,18,18,19,19,20,20,21,21,22,22,23,23,24,24],"right_children":[2,4,6,8,10,12,-1,14,16,18,20,22,24,26,28,30,32,34,36,38,40,42,44,46,48,-1,-1,-1,-1,-1,-1,-1,-1,-1,-1,-1,-1,-1,-1,-1,-1,-1,-1,-1,-1,-1,-1,-1,-1],"split_conditions":[-1.0337988E0,-2.719074E-1,1.3619359E0,-8.3169395E-1,7.8415096E-1,5.0788945E-1,-1.0285691E-1,9.4853514E-1,4.2135423E-1,-1.9054931E-1,-5.5033976E-1,1.4313927E0,-2.5701213E-1,-1.9639924E-1,2.8754896E-1,-4.098464E-1,5.057044E-1,-4.6170515E-1,-7.4146605E-1,-9.2481637E-1,1.3410441E0,-1.0101677E0,1.236859E-2,5.7507694E-1,4.0982985E-1,-4.6470966E-3,5.7801444E-2,9.6877605E-2,7.1127834E-3,-9.711029E-2,-1.0191355E-3,9.0760805E-2,-1.0777632E-2,1.0844119E-1,-3.6802124E-2,4.6326272E-2,9.613236E-2,6.81365E-2,-1.5238982E-1,-5.2568592E-2,8.466709E-2,1.2354317E-2,-4.6689022E-2,8.418127E-2,-5.2991163E-2,8.957108E-2,-8.40284E-3,-5.153476E-2,4.138157E-2],"split_indices":[0,5,0,10,7,5,0,1,8,3,10,1,15,22,15,4,7,17,1,11,7,11,10,10,33,0,0,0,0,0,0,0,0,0,0,0,0,0,0,0,0,0,0,0,0,0,0,0,0],"split_type":[0,0,0,0,0,0,0,0,0,0,0,0,0,0,0,0,0,0,0,0,0,0,0,0,0,0,0,0,0,0,0,0,0,0,0,0,0,0,0,0,0,0,0,0,0,0,0,0,0],"sum_hessian":[1.1035936E3,3.797304E2,7.2386316E2,2.754516E2,1.0427883E2,6.9495416E2,2.8908989E1,8.527068E1,1.9018091E2,8.6169304E1,1.8109528E1,4.762501E2,2.1870409E2,6.410803E1,2.116265E1,1.5381267E2,3.6368244E1,2.6836266E1,5.9333042E1,5.62878E0,1.2480748E1,3.9828442E2,7.796565E1,9.0546394E1,1.281577E2,2.2545649E1,4.156238E1,1.9038E1,2.12465E0,3.0238441E1,1.2357422E2,2.4628578E1,1.1739668E1,1.1262357E1,1.5573909E1,1.5311433E1,4.402161E1,1.6597909E0,3.968989E0,3.6825078E0,8.79824E0,9.6193054E1,3.0209137E2,5.2375244E1,2.5590406E1,6.1122932E1,2.942346E1,7.397167E1,5.4186024E1],"tree_param":{"num_deleted":"0","num_feature":"34","num_nodes":"49","size_leaf_vector":"0"}},{"base_weights":[-1.9938231E-4,-1.3339342E-1,2.2457072E-1,-9.0883E-1,-7.426883E-2,1.3674583E-1,7.636555E-1,-1.2508674E0,-2.9116997E-1,-2.6902111E-2,-6.9241476E-1,9.9882215E-1,7.042366E-2,9.843053E-1,-5.211575E-1,-1.4256025E-2,-1.2938359E0,4.752394E-1,-9.533789E-1,-1.9546755E-1,2.3495755E-1,-1.2438425E0,-3.024646E-2,1.3117874E0,2.5811958E-1,-8.0203354E-2,5.239797E-1,-3.2083206E-2,1.2388214E0,9.3875974E-1,-1.2723691E0,-8.540191E-1,8.057266E-1,-1.1994276E0,1.9085059E-1,-3.9154595E-1,1.3289711E-1,4.4287723E-1,-3.237232E-1,1.7001218E0,-5.2926356E-1,3.1311262E-1,1.4264985E0,-9.0514386E-1,6.778807E-1,2.9681036E-1,-2.4820693E-1,2.4265997E-1,1.6965503E0,-1.1851796E0,9.7533363E-1,3.265581E-1,1.4590085E0],"categories":[],"categories_nodes":[],"categories_segments":[],"categories_sizes":[],"default_left":[1,1,1,1,1,1,1,1,1,1,1,1,1,1,1,0,0,1,1,1,1,0,1,1,1,1,1,1,1,0,0,0,0,0,0,0,0,0,0,0,0,0,0,0,0,0,0,0,0,0,0,0,0],"id":26,"left_children":[1,3,5,7,9,11,13,15,17,19,21,23,25,27,29,-1,-1,31,33,35,37,-1,39,41,43,45,47,49,51,-1,-1,-1,-1,-1,-1,-1,-1,-1,-1,-1,-1,-1,-1,-1,-1,-1,-1,-1,-1,-1,-1,-1,-1],"loss_changes":[3.25813E1,3.1262318E1,1.9067478E1,9.844658E0,1.8603964E1,1.9908203E1,1.653339E1,1.6179733E0,9.855354E0,2.6168247E1,1.6476734E1,5.430418E0,2.2282402E1,1.2605293E1,1.0995023E1,0E0,0E0,4.7536893E0,3.120617E0,2.3268164E1,2.7117971E1,0E0,1.9529705E1,1.529438E0,4.830888E0,1.5607726E1,2.6404163E1,1.3588398E1,7.3316803E0,0E0,0E0,0E0,0E0,0E0,0E0,0E0,0E0,0E0,0E0,0E0,0E0,0E0,0E0,0E0,0E0,0E0,0E0,0E0,0E0,0E0,0E0,0E0,0E0],"parents":[2147483647,0,0,1,1,2,2,3,3,4,4,5,5,6,6,7,7,8,8,9,9,10,10,11,11,12,12,13,13,14,14,17,17,18,18,19,19,20,20,22,22,23,23,24,24,25,25,26,26,27,27,28,28],"right_children":[2,4,6,8,10,12,14,16,18,20,22,24,26,28,30,-1,-1,32,34,36,38,-1,40,42,44,46,48,50,52,-1,-1,-1,-1,-1,-1,-1,-1,-1,-1,-1,-1,-1,-1,-1,-1,-1,-1,-1,-1,-1,-1,-1,-1],"split_conditions":[3.9371157E-1,-1.1614025E0,1.2188175E0,1.0353455E-1,1.5709479E0,-1.1567318E0,-7.5505E-2,-1.1603984E0,-5.5033976E-1,1.1799102E-1,2.4021564E0,-6.172391E-1,1.0351229E0,-4.098464E-1,-1.1614025E0,-1.4256025E-3,-1.293836E-1,-4.098464E-1,1.2876863E0,2.2424892E-1,3.50796E-1,-1.2438425E-1,-6.172391E-1,-4.6170515E-1,-1.3089994E0,-8.3169395E-1,1.5521071E0,4.894395E-1,-7.4146605E-1,9.3875974E-2,-1.2723692E-1,-8.5401915E-2,8.057266E-2,-1.1994276E-1,1.9085059E-2,-3.9154597E-2,1.3289711E-2,4.4287723E-2,-3.2372322E-2,1.7001218E-1,-5.2926358E-2,3.1311262E-2,1.4264986E-1,-9.0514384E-2,6.778807E-2,2.9681036E-2,-2.4820693E-2,2.4265997E-2,1.6965503E-1,-1.1851796E-1,9.753337E-2,3.2655813E-2,1.4590085E-1],"split_indices":[28,3,20,1,11,11,0,11,10,5,11,2,4,4,3,0,0,4,5,1,15,0,2,17,11,10,1,6,1,0,0,0,0,0,0,0,0,0,0,0,0,0,0,0,0,0,0,0,0,0,0,0,0],"split_type":[0,0,0,0,0,0,0,0,0,0,0,0,0,0,0,0,0,0,0,0,0,0,0,0,0,0,0,0,0,0,0,0,0,0,0,0,0,0,0,0,0,0,0,0,0,0,0,0,0,0,0,0,0],"sum_hessian":[1.0862904E3,6.8235034E2,4.0393997E2,4.7323055E1,6.3502734E2,3.4842935E2,5.5510635E1,2.9797256E1,1.7525797E1,5.9079956E2,4.422773E1,2.388639E1,3.2454297E2,4.757427E1,7.936366E0,1.0453167E0,2.875194E1,8.254625E0,9.271172E0,3.5958167E2,2.3121793E2,2.3652458E1,2.0575274E1,1.624955E1,7.6368423E0,2.442501E2,8.0292854E1,9.70242E0,3.787185E1,2.6114905E0,5.324876E0,1.3282249E0,6.9264E0,7.590675E0,1.6804965E0,2.2502106E2,1.3456061E2,1.6865736E2,6.2560566E1,4.0667305E0,1.6508543E1,2.0584311E0,1.4191118E1,1.7183985E0,5.9184437E0,7.505466E1,1.6919545E2,6.5730034E1,1.4562817E1,4.4418235E0,5.2605963E0,7.84638E0,3.0025469E1],"tree_param":{"num_deleted":"0","num_feature":"34","num_nodes":"53","size_leaf_vector":"0"}},{"base_weights":[-6.716333E-5,-1.2457775E-1,2.3000367E-1,-1.6337566E-1,7.535054E-1,-4.428194E-2,5.128337E-1,-1.0212191E-1,-8.494849E-1,2.4551295E-1,1.7823184E0,3.5675213E-1,-5.2047384E-1,-6.3040876E-1,5.8612233E-1,-2.161615E-1,5.227939E-1,6.5404785E-1,-1.0315545E0,6.227062E-1,-1.0148674E0,5.662194E-1,2.1001115E0,-1.4736313E-1,6.169177E-1,-7.92882E-1,5.162379E-1,3.9205307E-1,-1.246666E0,6.220355E-1,-9.990845E-1,-3.6264977E-1,2.1692908E-1,-2.9245138E-1,7.919172E-1,-1.4228727E0,1.5080873E0,-1.1922182E0,-1.0778613E-1,1.2429466E0,-1.3986447E-1,2.5189838E0,6.758963E-1,-3.766589E-1,1.3567607E0,-1.2714938E0,6.811498E-1,-8.9451027E-1,7.9956484E-1,-9.1259414E-1,1.0012624E0,-4.6380177E-1,7.793855E-1,-1.6302142E0,3.1968516E-1,5.559897E-1,1.359626E0,-1.4343535E0,1.8924156E-1],"categories":[],"categories_nodes":[],"categories_segments":[],"categories_sizes":[],"default_left":[1,1,1,1,1,1,1,1,1,1,1,1,1,1,1,1,1,1,1,1,0,0,1,1,1,1,1,1,1,1,1,0,0,0,0,0,0,0,0,0,0,0,0,0,0,0,0,0,0,0,0,0,0,0,0,0,0,0,0],"id":27,"left_children":[1,3,5,7,9,11,13,15,17,19,21,23,25,27,29,31,33,35,37,39,-1,-1,41,43,45,47,49,51,53,55,57,-1,-1,-1,-1,-1,-1,-1,-1,-1,-1,-1,-1,-1,-1,-1,-1,-1,-1,-1,-1,-1,-1,-1,-1,-1,-1,-1,-1],"loss_changes":[3.0854485E1,2.393203E1,2.9363344E1,2.8076153E1,1.5111103E1,3.702923E1,1.5977913E1,4.4036003E1,1.5672253E1,1.0651861E1,2.549734E0,1.3904354E1,2.5432583E1,7.863754E0,1.0617374E1,3.3190918E1,2.1164303E1,1.3727974E1,7.181942E0,8.139497E0,0E0,0E0,2.6529045E0,1.3154558E1,9.315964E0,1.2135002E1,1.4111143E1,2.0728016E0,5.0522566E0,7.6380844E0,2.4818473E0,0E0,0E0,0E0,0E0,0E0,0E0,0E0,0E0,0E0,0E0,0E0,0E0,0E0,0E0,0E0,0E0,0E0,0E0,0E0,0E0,0E0,0E0,0E0,0E0,0E0,0E0,0E0,0E0],"parents":[2147483647,0,0,1,1,2,2,3,3,4,4,5,5,6,6,7,7,8,8,9,9,10,10,11,11,12,12,13,13,14,14,15,15,16,16,17,17,18,18,19,19,22,22,23,23,24,24,25,25,26,26,27,27,28,28,29,29,30,30],"right_children":[2,4,6,8,10,12,14,16,18,20,22,24,26,28,30,32,34,36,38,40,-1,-1,42,44,46,48,50,52,54,56,58,-1,-1,-1,-1,-1,-1,-1,-1,-1,-1,-1,-1,-1,-1,-1,-1,-1,-1,-1,-1,-1,-1,-1,-1,-1,-1,-1,-1],"split_conditions":[4.894395E-1,1.7511568E0,2.7691728E-1,1.0946913E0,9.858121E-1,-7.0780545E-2,-1.0517042E0,3.8244507E-1,-6.7443866E-1,-3.8331383E-1,-2.689856E-1,4.0982985E-1,1.4313927E0,-6.5692955E-1,4.59521E-1,1.0351229E0,-2.660653E-1,1.236859E-2,1.2188175E0,-3.296352E-1,-1.0148674E-1,5.662194E-2,1.595494E0,2.2763934E0,-6.498178E-1,2.4677486E0,-1.9639924E-1,-6.172391E-1,3.7608802E-1,1.2188175E0,-6.172391E-1,-3.626498E-2,2.1692907E-2,-2.9245138E-2,7.919172E-2,-1.4228727E-1,1.5080874E-1,-1.1922182E-1,-1.0778612E-2,1.2429466E-1,-1.3986448E-2,2.5189838E-1,6.758963E-2,-3.766589E-2,1.3567607E-1,-1.2714939E-1,6.811498E-2,-8.945103E-2,7.995649E-2,-9.125941E-2,1.00126244E-1,-4.6380177E-2,7.793855E-2,-1.6302143E-1,3.1968515E-2,5.559897E-2,1.359626E-1,-1.4343534E-1,1.8924156E-2],"split_indices":[6,3,16,11,11,27,5,11,0,12,10,33,1,8,15,4,12,10,20,7,0,0,11,1,11,11,22,2,15,20,2,0,0,0,0,0,0,0,0,0,0,0,0,0,0,0,0,0,0,0,0,0,0,0,0,0,0,0,0],"split_type":[0,0,0,0,0,0,0,0,0,0,0,0,0,0,0,0,0,0,0,0,0,0,0,0,0,0,0,0,0,0,0,0,0,0,0,0,0,0,0,0,0,0,0,0,0,0,0,0,0,0,0,0,0,0,0,0,0,0,0],"sum_hessian":[1.0750859E3,6.978691E2,3.772169E2,6.6911816E2,2.8750895E1,1.9192929E2,1.8528758E2,6.1533203E2,5.3786133E1,2.0076464E1,8.674431E0,1.0432275E2,8.760655E1,1.0704492E1,1.7458308E2,5.209238E2,9.440822E1,5.5296774E0,4.8256454E1,1.5841519E1,4.2349434E0,2.3734963E0,6.3009343E0,3.565966E1,6.8663086E1,6.95632E1,1.804335E1,4.162351E0,6.5421405E0,1.7130963E2,3.2734547E0,3.8938214E2,1.3154169E2,2.3409128E1,7.099909E1,1.4171908E0,4.112487E0,4.085948E1,7.396972E0,8.3886385E0,7.4528813E0,4.2749557E0,2.0259786E0,3.1593046E1,4.0666113E0,1.6403956E0,6.702269E1,6.580206E1,3.7611384E0,4.3492804E0,1.3694071E1,1.2353282E0,2.927023E0,5.2225394E0,1.3196014E0,1.5884044E2,1.2469196E1,2.2443428E0,1.0291117E0],"tree_param":{"num_deleted":"0","num_feature":"34","num_nodes":"59","size_leaf_vector":"0"}},{"base_weights":[6.842256E-5,2.711134E-1,-9.447333E-2,4.5702392E-1,-1.7873445E-1,-2.2663277E-1,1.2326016E-1,-5.5202055E-1,5.349516E-1,-9.901547E-1,1.6464719E-1,1.1321528E0,-2.6634237E-1,1.8250863E-1,-1.1510161E0,-1.5744019E0,2.6551977E-1,3.5979253E-1,9.028728E-1,-1.312698E0,2.8654483E-1,-1.9750586E-1,1.0844766E0,-7.0796865E-1,1.3925465E0,-9.153716E-1,-2.0828262E-1,4.6595895E-1,-1.2678683E-1,-1.9764346E0,-2.426443E-1,-1.0833822E0,6.2512195E-1,5.515252E-1,-2.9745877E-1,1.0104244E0,-1.17478624E-1,-9.5903814E-1,1.3089275E0,9.1721326E-1,-5.925888E-1,-8.838645E-1,1.6570767E0,3.2347172E-1,1.524576E0,-1.4571853E-1,-1.3638246E0,-3.328087E-1,1.624799E-1,6.181244E-1,-2.6023355E-1,-6.036069E-1,4.0290222E-1],"categories":[],"categories_nodes":[],"categories_segments":[],"categories_sizes":[],"default_left":[1,1,1,1,1,1,1,1,1,1,1,1,1,1,0,1,1,1,1,0,1,1,1,0,1,1,1,1,1,0,0,0,0,0,0,0,0,0,0,0,0,0,0,0,0,0,0,0,0,0,0,0,0],"id":28,"left_children":[1,3,5,7,9,11,13,15,17,19,21,23,25,27,-1,29,31,33,35,-1,37,39,41,-1,43,45,47,49,51,-1,-1,-1,-1,-1,-1,-1,-1,-1,-1,-1,-1,-1,-1,-1,-1,-1,-1,-1,-1,-1,-1,-1,-1],"loss_changes":[2.7257528E1,2.3086786E1,2.2721155E1,1.5622314E1,2.2775772E1,2.680001E1,2.2748295E1,1.25096035E1,1.1368839E1,1.0372351E1,1.9496077E1,7.7588177E0,1.782043E1,2.5143505E1,0E0,3.0392666E0,4.9915257E0,1.5864656E1,6.4684296E0,0E0,8.5353365E0,1.9206732E1,2.0067707E1,0E0,1.302248E0,1.3245674E1,2.0369528E1,1.6682308E1,3.499887E1,0E0,0E0,0E0,0E0,0E0,0E0,0E0,0E0,0E0,0E0,0E0,0E0,0E0,0E0,0E0,0E0,0E0,0E0,0E0,0E0,0E0,0E0,0E0,0E0],"parents":[2147483647,0,0,1,1,2,2,3,3,4,4,5,5,6,6,7,7,8,8,9,9,10,10,11,11,12,12,13,13,15,15,16,16,17,17,18,18,20,20,21,21,22,22,24,24,25,25,26,26,27,27,28,28],"right_children":[2,4,6,8,10,12,14,16,18,20,22,24,26,28,-1,30,32,34,36,-1,38,40,42,-1,44,46,48,50,52,-1,-1,-1,-1,-1,-1,-1,-1,-1,-1,-1,-1,-1,-1,-1,-1,-1,-1,-1,-1,-1,-1,-1,-1],"split_conditions":[-8.3169395E-1,-5.0056237E-1,4.0982985E-1,-9.828948E-1,-1.9639924E-1,-1.7968276E0,1.1223624E0,7.803037E-1,4.894395E-1,2.0349646E0,1.0025756E0,3.364967E-2,-1.1614025E0,2.8388137E-1,-1.1510161E-1,4.0145916E-1,-4.098464E-1,4.0145916E-1,9.971889E-1,-1.312698E-1,4.0982985E-1,-9.828948E-1,2.7691728E-1,-7.079687E-2,-1.8923262E0,-4.6170515E-1,1.0351229E0,4.6567768E-1,-2.719074E-1,-1.9764346E-1,-2.426443E-2,-1.0833823E-1,6.25122E-2,5.5152517E-2,-2.9745877E-2,1.0104244E-1,-1.1747862E-2,-9.5903814E-2,1.3089275E-1,9.1721326E-2,-5.925888E-2,-8.838645E-2,1.6570768E-1,3.2347172E-2,1.524576E-1,-1.4571853E-2,-1.3638246E-1,-3.328087E-2,1.6247991E-2,6.181244E-2,-2.6023356E-2,-6.036069E-2,4.029022E-2],"split_indices":[10,12,33,1,22,15,0,3,6,1,0,13,3,24,0,18,4,18,15,0,33,1,16,0,15,17,4,1,5,0,0,0,0,0,0,0,0,0,0,0,0,0,0,0,0,0,0,0,0,0,0,0,0],"split_type":[0,0,0,0,0,0,0,0,0,0,0,0,0,0,0,0,0,0,0,0,0,0,0,0,0,0,0,0,0,0,0,0,0,0,0,0,0,0,0,0,0,0,0,0,0,0,0,0,0,0,0,0,0],"sum_hessian":[1.061706E3,2.7407718E2,7.8762885E2,1.9391936E2,8.015783E1,4.90105E2,2.9752386E2,1.3466401E1,1.8045296E2,2.3274948E1,5.688288E1,1.3135139E1,4.7696988E2,2.851236E2,1.2400268E1,5.5722284E0,7.8941727E0,1.2359162E2,5.6861332E1,1.855823E1,4.716718E0,4.137722E1,1.5505661E1,1.4152402E0,1.1719899E1,3.7952E1,4.3901788E2,1.4851352E2,1.3661006E2,3.9083047E0,1.6639239E0,1.2379143E0,6.6562586E0,9.5804504E1,2.7787123E1,5.14481E1,5.4132314E0,2.154193E0,2.5625253E0,1.0481707E1,3.0895512E1,3.3716958E0,1.21339655E1,1.6675256E0,1.0052374E1,1.4460037E1,2.3491962E1,3.287161E2,1.1030179E2,1.22908295E2,2.5605232E1,7.181945E1,6.47906E1],"tree_param":{"num_deleted":"0","num_feature":"34","num_nodes":"53","size_leaf_vector":"0"}},{"base_weights":[-2.8220873E-4,2.1888039E-1,-1.1549442E-1,9.569751E-2,4.7356004E-1,-8.193497E-2,-1.0115921E0,1.2326462E-1,-1.4439589E0,1.653777E-1,6.6083074E-1,1.9066604E-2,-3.098008E-1,4.2056233E-1,-1.1819884E-2,-1.8498404E0,-4.516506E-1,-4.4267944E-1,5.3669184E-1,4.177051E-1,9.335289E-1,-1.2023393E-1,3.2753396E-1,-1.407927E-1,-1.0126466E0,-1.112736E0,6.559928E-1,-2.0019731E-1,3.7154043E-1,4.439276E-1,-8.051555E-1,6.603195E-1,